{"learner":{"attributes":{"scikit_learn":"{\"_estimator_type\": \"regressor\"}"},"feature_names":["latitude","longitude","depth_km","prev_magnitude","quake_count_7d","quake_count_30d","avg_magnitude_30d","max_magnitude_30d","days_since_last_quake","month","seismic_zone"],"feature_types":["float","float","float","float","int","int","float","float","float","int","int"],"gradient_booster":{"model":{"cats":{"enc":[],"feature_segments":[],"sorted_idx":[]},"gbtree_model_param":{"num_parallel_tree":"1","num_trees":"300"},"iteration_indptr":[0,1,2,3,4,5,6,7,8,9,10,11,12,13,14,15,16,17,18,19,20,21,22,23,24,25,26,27,28,29,30,31,32,33,34,35,36,37,38,39,40,41,42,43,44,45,46,47,48,49,50,51,52,53,54,55,56,57,58,59,60,61,62,63,64,65,66,67,68,69,70,71,72,73,74,75,76,77,78,79,80,81,82,83,84,85,86,87,88,89,90,91,92,93,94,95,96,97,98,99,100,101,102,103,104,105,106,107,108,109,110,111,112,113,114,115,116,117,118,119,120,121,122,123,124,125,126,127,128,129,130,131,132,133,134,135,136,137,138,139,140,141,142,143,144,145,146,147,148,149,150,151,152,153,154,155,156,157,158,159,160,161,162,163,164,165,166,167,168,169,170,171,172,173,174,175,176,177,178,179,180,181,182,183,184,185,186,187,188,189,190,191,192,193,194,195,196,197,198,199,200,201,202,203,204,205,206,207,208,209,210,211,212,213,214,215,216,217,218,219,220,221,222,223,224,225,226,227,228,229,230,231,232,233,234,235,236,237,238,239,240,241,242,243,244,245,246,247,248,249,250,251,252,253,254,255,256,257,258,259,260,261,262,263,264,265,266,267,268,269,270,271,272,273,274,275,276,277,278,279,280,281,282,283,284,285,286,287,288,289,290,291,292,293,294,295,296,297,298,299,300],"tree_info":[0,0,0,0,0,0,0,0,0,0,0,0,0,0,0,0,0,0,0,0,0,0,0,0,0,0,0,0,0,0,0,0,0,0,0,0,0,0,0,0,0,0,0,0,0,0,0,0,0,0,0,0,0,0,0,0,0,0,0,0,0,0,0,0,0,0,0,0,0,0,0,0,0,0,0,0,0,0,0,0,0,0,0,0,0,0,0,0,0,0,0,0,0,0,0,0,0,0,0,0,0,0,0,0,0,0,0,0,0,0,0,0,0,0,0,0,0,0,0,0,0,0,0,0,0,0,0,0,0,0,0,0,0,0,0,0,0,0,0,0,0,0,0,0,0,0,0,0,0,0,0,0,0,0,0,0,0,0,0,0,0,0,0,0,0,0,0,0,0,0,0,0,0,0,0,0,0,0,0,0,0,0,0,0,0,0,0,0,0,0,0,0,0,0,0,0,0,0,0,0,0,0,0,0,0,0,0,0,0,0,0,0,0,0,0,0,0,0,0,0,0,0,0,0,0,0,0,0,0,0,0,0,0,0,0,0,0,0,0,0,0,0,0,0,0,0,0,0,0,0,0,0,0,0,0,0,0,0,0,0,0,0,0,0,0,0,0,0,0,0,0,0,0,0,0,0,0,0,0,0,0,0,0,0,0,0,0,0,0,0,0,0,0,0,0,0,0,0,0,0],"trees":[{"base_weights":[-2.1356097E-3,-5.149946E-1,6.814373E-2,-7.679792E-1,-3.574035E-1,-1.4543338E-2,2.0051068E-1,-6.6531646E-1,-1.1667033E0,2.0855157E-1,-4.3210137E-1,6.1210778E-2,-2.6148722E-1,2.6868427E-1,1.1632652E-1,-7.607337E-1,-4.1284168E-1,-1.7776505E0,-6.182307E-1,-1.0961179E-1,6.511773E-1,-7.908759E-1,-3.086121E-1,2.5064306E-2,1.7087176E-1,-3.435825E-1,-1.5124246E-3,6.765071E-1,2.5913185E-1,2.0678651E-1,-2.0177986E-2,-6.14755E-1,-1.1326994E0,-6.1452204E-1,-1.6314542E-1,-2.2272499E0,-7.677811E-1,-1.2598634E0,-2.9825017E-1,-4.5425797E-1,4.0366858E-1,1.3126233E0,4.5868343E-1,-9.5756775E-1,-1.3753593E-1,-7.175242E-1,-1.8763587E-1,5.85384E-2,-6.283603E-2,2.1850452E-1,-9.17646E-3,-4.9070475E-1,-8.962045E-2,-1.2433325E-1,1.2971933E-1,1.626234E-1,7.624641E-1,2.721566E-1,-3.0425943E-3,-2.5944772E-1,2.1441828E-1,-1.124183E-2,-1.066213E-1,-1.540256E-2,-4.0465802E-2,-8.639579E-2,-4.2187907E-2,-2.1780705E-2,-5.1070094E-2,1.3378704E-2,-9.100911E-3,-1.1927867E-1,-1.88284E-2,5.4059173E-3,-6.096228E-2,-1.1686883E-1,-1.4712277E-2,-7.56695E-3,-1.066213E-1,-1.477416E-2,-1.066213E-1,2.9324904E-2,2.9349073E-3,7.740592E-2,3.3787012E-3,3.196006E-2,4.3399096E-3,-1.0603551E-1,-4.3910176E-2,2.9853357E-3,-4.3535504E-2,-1.065253E-2,-5.2332368E-2,-8.060264E-3,-5.121565E-2,1.0417845E-2,1.8175923E-3,4.662801E-3,-9.477249E-3,3.085084E-2,1.0131168E-2,2.693623E-3,-2.7229125E-2,-1.5054591E-2,-3.3090845E-2,-1.066213E-1,-3.7327732E-3,-1.7910918E-2,2.929827E-3,5.163034E-3,4.2568054E-2,1.3180554E-3,1.4504934E-2,4.1497495E-2,-3.8283987E-3,2.3682317E-2,1.2888837E-2,3.2688223E-3,-4.459408E-2,-7.049506E-2,5.5816555E-3,1.6960094E-2,9.793447E-3,-1.8864868E-2,1.2568034E-3],"categories":[],"categories_nodes":[],"categories_segments":[],"categories_sizes":[],"default_left":[0,0,0,0,0,0,0,0,0,0,0,0,0,0,0,0,0,0,0,0,0,0,0,0,0,0,0,0,0,0,0,0,0,0,0,0,0,0,0,0,0,0,0,0,0,0,0,0,0,0,0,0,0,0,0,0,0,0,0,0,0,0,0,0,0,0,0,0,0,0,0,0,0,0,0,0,0,0,0,0,0,0,0,0,0,0,0,0,0,0,0,0,0,0,0,0,0,0,0,0,0,0,0,0,0,0,0,0,0,0,0,0,0,0,0,0,0,0,0,0,0,0,0,0,0],"id":0,"left_children":[1,3,5,7,9,11,13,15,17,19,21,23,25,27,29,31,33,35,37,39,41,43,45,47,49,51,53,55,57,59,61,63,65,67,69,71,73,75,77,79,81,83,85,87,89,91,93,95,97,99,101,103,105,107,109,111,113,115,117,119,121,123,-1,-1,-1,-1,-1,-1,-1,-1,-1,-1,-1,-1,-1,-1,-1,-1,-1,-1,-1,-1,-1,-1,-1,-1,-1,-1,-1,-1,-1,-1,-1,-1,-1,-1,-1,-1,-1,-1,-1,-1,-1,-1,-1,-1,-1,-1,-1,-1,-1,-1,-1,-1,-1,-1,-1,-1,-1,-1,-1,-1,-1,-1,-1],"loss_changes":[2.835164E2,3.7520508E1,7.572067E1,1.408284E1,2.4863632E1,7.968918E1,1.5234848E1,6.6962585E0,2.3362411E1,9.78846E0,2.2705818E1,1.2917892E1,2.1342186E1,5.5474777E0,1.4723223E1,1.0706474E1,4.029168E0,1.3727203E1,7.836645E0,7.4362745E0,3.0903263E0,1.424395E1,1.9009735E1,7.221346E0,6.931566E0,2.8352257E1,3.9005642E0,1.3336782E0,4.907837E0,2.6068535E0,8.960708E0,8.880604E0,8.517044E0,2.8307953E0,3.5760093E-1,5.8408127E0,4.877073E0,1.2838295E1,7.222187E0,6.031172E0,1.037777E0,1.654604E0,1.5556836E0,7.83033E0,4.101157E0,1.4387997E1,6.469034E0,5.899096E0,1.3407555E1,3.9191074E0,5.7679896E0,1.5406807E1,8.40056E0,5.3690596E0,2.1460466E0,9.6573114E-2,1.6489849E0,3.8444366E0,4.2544403E0,5.280327E0,1.5677071E0,6.33474E0,0E0,0E0,0E0,0E0,0E0,0E0,0E0,0E0,0E0,0E0,0E0,0E0,0E0,0E0,0E0,0E0,0E0,0E0,0E0,0E0,0E0,0E0,0E0,0E0,0E0,0E0,0E0,0E0,0E0,0E0,0E0,0E0,0E0,0E0,0E0,0E0,0E0,0E0,0E0,0E0,0E0,0E0,0E0,0E0,0E0,0E0,0E0,0E0,0E0,0E0,0E0,0E0,0E0,0E0,0E0,0E0,0E0,0E0,0E0,0E0,0E0,0E0,0E0],"parents":[2147483647,0,0,1,1,2,2,3,3,4,4,5,5,6,6,7,7,8,8,9,9,10,10,11,11,12,12,13,13,14,14,15,15,16,16,17,17,18,18,19,19,20,20,21,21,22,22,23,23,24,24,25,25,26,26,27,27,28,28,29,29,30,30,31,31,32,32,33,33,34,34,35,35,36,36,37,37,38,38,39,39,40,40,41,41,42,42,43,43,44,44,45,45,46,46,47,47,48,48,49,49,50,50,51,51,52,52,53,53,54,54,55,55,56,56,57,57,58,58,59,59,60,60,61,61],"right_children":[2,4,6,8,10,12,14,16,18,20,22,24,26,28,30,32,34,36,38,40,42,44,46,48,50,52,54,56,58,60,62,64,66,68,70,72,74,76,78,80,82,84,86,88,90,92,94,96,98,100,102,104,106,108,110,112,114,116,118,120,122,124,-1,-1,-1,-1,-1,-1,-1,-1,-1,-1,-1,-1,-1,-1,-1,-1,-1,-1,-1,-1,-1,-1,-1,-1,-1,-1,-1,-1,-1,-1,-1,-1,-1,-1,-1,-1,-1,-1,-1,-1,-1,-1,-1,-1,-1,-1,-1,-1,-1,-1,-1,-1,-1,-1,-1,-1,-1,-1,-1,-1,-1,-1,-1],"split_conditions":[4E0,1.032E1,9.1426E1,1E1,2.87E1,4.3E1,3E1,2.2E1,2.7337277E-1,9.02706E1,3.2E0,7.93974E1,6.8E0,9E0,1.7E1,9.8E1,8.3133E1,1.3E2,3.5E0,4.6021673E-1,2.6E0,4E0,3.54E1,7.18701E1,8.85534E1,9.95E1,8.21939E1,9.2488E1,1.28E2,9.725E-3,2.16E2,2.8814524E-1,4.5837615E-2,8.1732E1,4.21875E-4,9.08861E1,1.44E2,5.3E0,9E0,8.7661E1,8.3584E1,9.2488E1,5.292868E-1,4.7E0,7.14233E1,3.5E1,2.05E2,1.8E1,1.5E1,9.99E0,3.4E1,7.7E1,2.124537E-3,1.032E1,5.26E0,4.7E0,3.2592695E0,2.9450231E-3,5.2E0,1E0,7E0,3.004E1,-1.066213E-1,-1.540256E-2,-4.0465802E-2,-8.639579E-2,-4.2187907E-2,-2.1780705E-2,-5.1070094E-2,1.3378704E-2,-9.100911E-3,-1.1927867E-1,-1.88284E-2,5.4059173E-3,-6.096228E-2,-1.1686883E-1,-1.4712277E-2,-7.56695E-3,-1.066213E-1,-1.477416E-2,-1.066213E-1,2.9324904E-2,2.9349073E-3,7.740592E-2,3.3787012E-3,3.196006E-2,4.3399096E-3,-1.0603551E-1,-4.3910176E-2,2.9853357E-3,-4.3535504E-2,-1.065253E-2,-5.2332368E-2,-8.060264E-3,-5.121565E-2,1.0417845E-2,1.8175923E-3,4.662801E-3,-9.477249E-3,3.085084E-2,1.0131168E-2,2.693623E-3,-2.7229125E-2,-1.5054591E-2,-3.3090845E-2,-1.066213E-1,-3.7327732E-3,-1.7910918E-2,2.929827E-3,5.163034E-3,4.2568054E-2,1.3180554E-3,1.4504934E-2,4.1497495E-2,-3.8283987E-3,2.3682317E-2,1.2888837E-2,3.2688223E-3,-4.459408E-2,-7.049506E-2,5.5816555E-3,1.6960094E-2,9.793447E-3,-1.8864868E-2,1.2568034E-3],"split_indices":[3,2,1,9,2,5,2,4,8,1,3,1,7,2,5,5,1,5,3,8,3,4,2,1,1,2,1,1,5,8,5,8,8,1,8,1,5,7,4,1,1,1,8,7,1,2,5,5,5,2,5,5,8,2,3,3,8,8,3,4,5,2,0,0,0,0,0,0,0,0,0,0,0,0,0,0,0,0,0,0,0,0,0,0,0,0,0,0,0,0,0,0,0,0,0,0,0,0,0,0,0,0,0,0,0,0,0,0,0,0,0,0,0,0,0,0,0,0,0,0,0,0,0,0,0],"split_type":[0,0,0,0,0,0,0,0,0,0,0,0,0,0,0,0,0,0,0,0,0,0,0,0,0,0,0,0,0,0,0,0,0,0,0,0,0,0,0,0,0,0,0,0,0,0,0,0,0,0,0,0,0,0,0,0,0,0,0,0,0,0,0,0,0,0,0,0,0,0,0,0,0,0,0,0,0,0,0,0,0,0,0,0,0,0,0,0,0,0,0,0,0,0,0,0,0,0,0,0,0,0,0,0,0,0,0,0,0,0,0,0,0,0,0,0,0,0,0,0,0,0,0,0,0],"sum_hessian":[7.864E3,9.47E2,6.917E3,3.62E2,5.85E2,4.258E3,2.659E3,2.9E2,7.2E1,6.8E1,5.17E2,3.259E3,9.99E2,1.468E3,1.191E3,2.09E2,8.1E1,3.3E1,3.9E1,4E1,2.8E1,1.31E2,3.86E2,2.452E3,8.07E2,7.59E2,2.4E2,3.2E1,1.436E3,7.16E2,4.75E2,1.52E2,5.7E1,4.4E1,3.7E1,2.2E1,1.1E1,1.2E1,2.7E1,2.4E1,1.6E1,5E0,2.3E1,1.04E2,2.7E1,8.7E1,2.99E2,1.776E3,6.76E2,6.38E2,1.69E2,4.8E2,2.79E2,1.24E2,1.16E2,5E0,2.7E1,1.368E3,6.8E1,1.1E1,7.05E2,4.74E2,1E0,6E1,9.2E1,1.7E1,4E1,3.2E1,1.2E1,1E0,3.6E1,2E1,2E0,4E0,7E0,5E0,7E0,2.6E1,1E0,2.3E1,1E0,1E1,6E0,4E0,1E0,1.5E1,8E0,5E0,9.9E1,2.2E1,5E0,3.5E1,5.2E1,2.91E2,8E0,2.28E2,1.548E3,3.03E2,3.73E2,2.3E1,6.15E2,1.52E2,1.7E1,2.29E2,2.51E2,1E0,2.78E2,5.4E1,7E1,1.13E2,3E0,3E0,2E0,2.5E1,2E0,8.9E1,1.279E3,6.4E1,4E0,2E0,9E0,8.9E1,6.16E2,4.2E1,4.32E2],"tree_param":{"num_deleted":"0","num_feature":"11","num_nodes":"125","size_leaf_vector":"1"}},{"base_weights":[5.2402737E-3,-4.787895E-1,7.081552E-2,-7.271158E-1,-3.2729864E-1,1.8691905E-1,-1.4108841E-2,-2.292525E0,-6.984485E-1,1.888986E-1,-4.0055066E-1,2.51643E-1,1.2785162E-1,4.4300705E-3,-3.854895E-1,-1.969452E-2,-1.571685E-1,-5.618815E-1,-9.430517E-1,-7.1485065E-2,4.5121428E-1,-8.4731734E-1,-2.6041684E-1,1.3110808E-1,2.829273E-1,1.7380205E-1,6.798753E-2,6.308183E-1,-1.9846242E-3,-8.326567E-1,-1.8086152E-1,-2.9226145E-1,-6.7874396E-1,-1.0866268E0,-1.3495116E-1,4.7924936E-2,-1.0984513E0,5.3522515E-1,1.47070205E-2,-1.5859577E-1,-7.6276976E-1,-6.003652E-1,-1.6386046E-1,3.129999E-1,4.4530496E-2,3.3393574E-1,2.0309018E-1,1.6114911E-1,6.8007845E-1,-3.8156873E-1,1.0234969E-1,4.8334303E-1,6.8068765E-2,-1.6947549E-2,1.0539307E-1,-1.4664042E0,-3.380826E-1,-3.3290374E-1,9.531542E-2,-4.131439E-2,-9.579748E-4,-5.9165996E-2,-3.1093273E-2,-6.43168E-2,-1.32815195E-2,1.0872181E-2,-2.5454516E-2,8.168134E-3,-4.437792E-2,-3.9262376E-3,-1.0395577E-1,3.3795487E-2,1.0899436E-2,-8.973058E-3,6.4133266E-3,-9.465378E-3,-5.6469597E-2,7.820997E-3,-3.6771387E-2,-3.6316942E-2,-6.73522E-3,-7.259137E-2,1.8357322E-2,4.415315E-3,-2.1466129E-2,1.784787E-2,8.750332E-3,5.333207E-3,1.3593587E-2,6.7487746E-3,1.4409912E-2,1.5274716E-2,6.252955E-2,-1.169668E-2,-6.8801284E-2,-3.6003706E-3,6.014027E-3,1.4772064E-2,4.5238156E-2,-8.397034E-6,-6.0548238E-3,4.2887493E-3,2.3976251E-2,-1.0501484E-2,-1.0595945E-1,3.8298003E-3,-2.933008E-2,-1.4419374E-2,-7.341954E-2,1.4191084E-2,-2.47342E-3],"categories":[],"categories_nodes":[],"categories_segments":[],"categories_sizes":[],"default_left":[0,0,0,0,0,0,0,0,0,0,0,0,0,0,0,0,0,0,0,0,0,0,0,0,0,0,0,0,0,0,0,0,0,0,0,0,0,0,0,0,0,0,0,0,0,0,0,0,0,0,0,0,0,0,0,0,0,0,0,0,0,0,0,0,0,0,0,0,0,0,0,0,0,0,0,0,0,0,0,0,0,0,0,0,0,0,0,0,0,0,0,0,0,0,0,0,0,0,0,0,0,0,0,0,0,0,0,0,0,0,0],"id":1,"left_children":[1,3,5,7,9,11,13,15,17,19,21,23,25,27,29,-1,-1,31,33,35,37,39,41,43,45,47,49,51,53,55,57,59,61,63,65,67,69,71,73,-1,75,77,79,81,83,85,87,89,91,93,95,97,-1,99,101,103,105,107,109,-1,-1,-1,-1,-1,-1,-1,-1,-1,-1,-1,-1,-1,-1,-1,-1,-1,-1,-1,-1,-1,-1,-1,-1,-1,-1,-1,-1,-1,-1,-1,-1,-1,-1,-1,-1,-1,-1,-1,-1,-1,-1,-1,-1,-1,-1,-1,-1,-1,-1,-1,-1],"loss_changes":[2.5192549E2,3.5387375E1,6.8924164E1,1.4464432E1,2.2385036E1,1.1257378E1,2.7803307E1,8.454517E0,1.1261993E1,5.0866556E0,3.2147217E1,5.2722626E0,4.2408905E0,1.545884E1,1.7417963E1,0E0,0E0,7.0170746E0,1.4356247E1,4.7125845E0,1.3489685E0,2.1754875E1,1.2867178E1,4.5844064E0,4.481018E0,5.489147E0,1.0435371E1,3.5438108E0,6.121647E0,1.831034E1,5.616474E0,1.03390665E1,3.8273544E0,1.7038132E1,2.7475917E0,3.9246469E0,3.8375597E0,1.2361975E0,1.7736635E-1,0E0,2.5015472E1,9.007597E0,4.969652E0,9.515606E0,4.1658287E0,2.4255219E0,2.875965E0,2.8009377E0,4.105755E0,6.725307E0,1.9657688E0,2.425005E0,0E0,5.843881E0,3.3791928E0,2.0878605E1,3.651874E0,3.9236298E0,1.3240877E0,0E0,0E0,0E0,0E0,0E0,0E0,0E0,0E0,0E0,0E0,0E0,0E0,0E0,0E0,0E0,0E0,0E0,0E0,0E0,0E0,0E0,0E0,0E0,0E0,0E0,0E0,0E0,0E0,0E0,0E0,0E0,0E0,0E0,0E0,0E0,0E0,0E0,0E0,0E0,0E0,0E0,0E0,0E0,0E0,0E0,0E0,0E0,0E0,0E0,0E0,0E0,0E0],"parents":[2147483647,0,0,1,1,2,2,3,3,4,4,5,5,6,6,7,7,8,8,9,9,10,10,11,11,12,12,13,13,14,14,17,17,18,18,19,19,20,20,21,21,22,22,23,23,24,24,25,25,26,26,27,27,28,28,29,29,30,30,31,31,32,32,33,33,34,34,35,35,36,36,37,37,38,38,40,40,41,41,42,42,43,43,44,44,45,45,46,46,47,47,48,48,49,49,50,50,51,51,53,53,54,54,55,55,56,56,57,57,58,58],"right_children":[2,4,6,8,10,12,14,16,18,20,22,24,26,28,30,-1,-1,32,34,36,38,40,42,44,46,48,50,52,54,56,58,60,62,64,66,68,70,72,74,-1,76,78,80,82,84,86,88,90,92,94,96,98,-1,100,102,104,106,108,110,-1,-1,-1,-1,-1,-1,-1,-1,-1,-1,-1,-1,-1,-1,-1,-1,-1,-1,-1,-1,-1,-1,-1,-1,-1,-1,-1,-1,-1,-1,-1,-1,-1,-1,-1,-1,-1,-1,-1,-1,-1,-1,-1,-1,-1,-1,-1,-1,-1,-1,-1,-1],"split_conditions":[4E0,1.032E1,2.8809E1,6.88919E1,2.87E1,1.51779E1,1E1,5.1E0,8E0,9.02706E1,3.54E1,9.23513E1,3.473E1,9E0,3.2312E1,-1.969452E-2,-1.571685E-1,1E0,9.08861E1,8.85534E1,3.3182E1,7.174E0,3.2E0,8.3607E0,2.941E1,5.4E0,3.54E1,8.9669E1,4.9E0,2.6E1,6E0,7.6782E1,3E0,3E1,3.7E0,3.7E1,2.573E1,2.465E1,9.08861E1,-1.5859577E-1,3.5E1,2.35263E1,2E0,9.99E0,5.2E0,5.1E1,3.7E1,1.31E1,6.6E0,1.2E1,4.1E0,4.7E0,6.8068765E-2,6.1E0,5.9E0,1.2E1,4E1,3E0,1.032E1,-4.131439E-2,-9.579748E-4,-5.9165996E-2,-3.1093273E-2,-6.43168E-2,-1.32815195E-2,1.0872181E-2,-2.5454516E-2,8.168134E-3,-4.437792E-2,-3.9262376E-3,-1.0395577E-1,3.3795487E-2,1.0899436E-2,-8.973058E-3,6.4133266E-3,-9.465378E-3,-5.6469597E-2,7.820997E-3,-3.6771387E-2,-3.6316942E-2,-6.73522E-3,-7.259137E-2,1.8357322E-2,4.415315E-3,-2.1466129E-2,1.784787E-2,8.750332E-3,5.333207E-3,1.3593587E-2,6.7487746E-3,1.4409912E-2,1.5274716E-2,6.252955E-2,-1.169668E-2,-6.8801284E-2,-3.6003706E-3,6.014027E-3,1.4772064E-2,4.5238156E-2,-8.397034E-6,-6.0548238E-3,4.2887493E-3,2.3976251E-2,-1.0501484E-2,-1.0595945E-1,3.8298003E-3,-2.933008E-2,-1.4419374E-2,-7.341954E-2,1.4191084E-2,-2.47342E-3],"split_indices":[3,2,0,1,2,0,4,7,9,1,2,1,2,2,0,0,0,4,1,1,0,0,3,0,2,3,2,1,3,4,9,1,4,4,3,4,0,2,1,0,2,0,9,2,3,4,2,2,7,9,3,3,0,7,3,4,4,10,2,0,0,0,0,0,0,0,0,0,0,0,0,0,0,0,0,0,0,0,0,0,0,0,0,0,0,0,0,0,0,0,0,0,0,0,0,0,0,0,0,0,0,0,0,0,0,0,0,0,0,0,0],"split_type":[0,0,0,0,0,0,0,0,0,0,0,0,0,0,0,0,0,0,0,0,0,0,0,0,0,0,0,0,0,0,0,0,0,0,0,0,0,0,0,0,0,0,0,0,0,0,0,0,0,0,0,0,0,0,0,0,0,0,0,0,0,0,0,0,0,0,0,0,0,0,0,0,0,0,0,0,0,0,0,0,0,0,0,0,0,0,0,0,0,0,0,0,0,0,0,0,0,0,0,0,0,0,0,0,0,0,0,0,0,0,0],"sum_hessian":[7.935E3,9.46E2,6.989E3,3.57E2,5.89E2,2.952E3,4.037E3,5E0,3.52E2,7.3E1,5.16E2,1.407E3,1.545E3,3.846E3,1.91E2,2E0,3E0,2.28E2,1.24E2,3.7E1,3.6E1,1.22E2,3.94E2,2.91E2,1.116E3,8.73E2,6.72E2,3.8E1,3.808E3,5.9E1,1.32E2,7E1,1.58E2,1.05E2,1.9E1,3.4E1,3E0,3E1,6E0,3E0,1.19E2,8.6E1,3.08E2,9.3E1,1.98E2,6.79E2,4.37E2,8.53E2,2E1,4.7E1,6.25E2,3.3E1,5E0,3.343E3,4.65E2,2.5E1,3.4E1,8.5E1,4.7E1,2.3E1,4.7E1,1.4E1,1.44E2,8.4E1,2.1E1,1E1,9E0,3.1E1,3E0,2E0,1E0,2E1,1E1,2E0,4E0,4.7E1,7.2E1,1.3E1,7.3E1,1.4E1,2.94E2,2E0,9.1E1,1.82E2,1.6E1,5.92E2,8.7E1,1.83E2,2.54E2,7.09E2,1.44E2,1.3E1,7E0,4.2E1,5E0,5.8E1,5.67E2,2.4E1,9E0,2.88E3,4.63E2,4.43E2,2.2E1,9E0,1.6E1,1.3E1,2.1E1,8.3E1,2E0,2E1,2.7E1],"tree_param":{"num_deleted":"0","num_feature":"11","num_nodes":"111","size_leaf_vector":"1"}},{"base_weights":[4.895845E-3,-4.634681E-1,1.5953976E-1,7.68886E-2,-4.8656434E-1,6.0141586E-2,2.2958486E-1,1.20538354E-1,-2.1184061E-1,-8.004482E-1,-4.391161E-1,9.5815545E-1,5.7543863E-2,-3.580116E-1,2.329208E-1,1.1993775E-2,1.7926924E-1,-1.9471793E-2,-9.656292E-2,-7.350385E-1,-2.433964E0,-4.992216E-1,-2.6350078E-1,7.237821E-2,4.7287902E-1,3.8001824E-2,1.5637204E-1,-1.5063121E0,1.2517604E-1,3.909522E-1,2.2562791E-1,1.9094308E-1,-7.81472E-2,2.9162672E-1,6.412376E-2,-1.625859E-1,6.7670666E-2,-8.370949E-1,-1.01081625E-1,-1.666144E-1,-1.0488476E0,-3.02279E-1,-6.405028E-1,-4.3563956E-1,-7.5492024E-2,1.1158467E-3,2.8997017E-2,5.4438476E-2,-1.4676894E-1,-3.1017444E-1,1.630125E-1,-1.8144304E-1,-1.3853501E-1,-1.7857313E-1,2.9490796E-1,4.2261392E-1,-6.180924E-1,2.1038686E-1,2.9523638E-1,-8.354038E-3,1.989009E-2,-9.186378E-4,-9.731698E-3,2.2302594E-2,1.0544269E-2,1.1329788E-2,-1.5637234E-3,-2.7121624E-3,-1.015982E-2,-3.0857087E-3,8.161008E-3,-5.677838E-2,-2.9811427E-2,1.9655613E-2,-1.2188284E-2,-1.2151435E-2,-1.06803074E-1,-3.321288E-2,-1.0271023E-2,-2.9476715E-2,-5.9471853E-2,-1.8190619E-2,-6.5985985E-2,-7.265448E-2,-2.7172433E-3,-3.008516E-2,2.860968E-3,-4.133109E-3,-3.954367E-2,-2.7754188E-3,-2.7316883E-2,7.0489137E-3,1.8402396E-2,-2.2792106E-2,1.6043855E-2,6.2485933E-3,-1.3213825E-2,7.154632E-3,2.4342889E-2,1.896336E-2,4.620291E-2,1.4231825E-2,-1.0572521E-1,8.016584E-3,1.1617684E-2,1.8549476E-2,1.2514571E-2],"categories":[],"categories_nodes":[],"categories_segments":[],"categories_sizes":[],"default_left":[0,0,0,0,0,0,0,0,0,0,0,0,0,0,0,0,0,0,0,0,0,0,0,0,0,0,0,0,0,0,0,0,0,0,0,0,0,0,0,0,0,0,0,0,0,0,0,0,0,0,0,0,0,0,0,0,0,0,0,0,0,0,0,0,0,0,0,0,0,0,0,0,0,0,0,0,0,0,0,0,0,0,0,0,0,0,0,0,0,0,0,0,0,0,0,0,0,0,0,0,0,0,0,0,0,0,0],"id":2,"left_children":[1,3,5,7,9,11,13,15,17,19,21,23,25,27,29,31,33,-1,35,37,39,41,43,-1,45,47,49,51,53,55,57,59,61,63,65,67,69,71,73,-1,75,77,79,81,83,-1,-1,85,87,89,91,93,-1,95,97,99,101,103,105,-1,-1,-1,-1,-1,-1,-1,-1,-1,-1,-1,-1,-1,-1,-1,-1,-1,-1,-1,-1,-1,-1,-1,-1,-1,-1,-1,-1,-1,-1,-1,-1,-1,-1,-1,-1,-1,-1,-1,-1,-1,-1,-1,-1,-1,-1,-1,-1],"loss_changes":[5.7045734E2,2.4436188E1,4.1210297E1,1.0463746E0,2.7573364E1,5.657872E0,6.8911285E0,4.5046914E-1,1.875954E-1,2.4388626E1,1.7084412E1,9.7796726E-1,4.7122326E0,1.1285447E1,3.8925323E0,4.3431896E-1,5.764228E-1,0E0,9.774782E-2,1.524913E1,7.7034874E0,3.3585083E1,1.3495096E1,0E0,2.2824633E-1,6.2065325E0,1.2990913E0,9.548166E0,8.260015E-1,5.085373E0,3.4431305E0,7.3300815E-1,1.217568E-1,1.9270945E-1,3.790756E-1,1.537706E-2,4.716097E-2,1.3988907E1,2.493289E0,0E0,3.861363E0,1.7709457E1,1.9051514E1,1.3363087E1,5.776619E0,0E0,0E0,3.4556575E0,6.8302975E0,3.3053023E-1,1.7461958E0,6.9761395E-1,0E0,1.891161E-1,2.2174346E-1,2.8447227E0,7.3561354E0,2.9469223E0,1.9193344E0,0E0,0E0,0E0,0E0,0E0,0E0,0E0,0E0,0E0,0E0,0E0,0E0,0E0,0E0,0E0,0E0,0E0,0E0,0E0,0E0,0E0,0E0,0E0,0E0,0E0,0E0,0E0,0E0,0E0,0E0,0E0,0E0,0E0,0E0,0E0,0E0,0E0,0E0,0E0,0E0,0E0,0E0,0E0,0E0,0E0,0E0,0E0,0E0],"parents":[2147483647,0,0,1,1,2,2,3,3,4,4,5,5,6,6,7,7,8,8,9,9,10,10,11,11,12,12,13,13,14,14,15,15,16,16,18,18,19,19,20,20,21,21,22,22,24,24,25,25,26,26,27,27,28,28,29,29,30,30,31,31,32,32,33,33,34,34,35,35,36,36,37,37,38,38,40,40,41,41,42,42,43,43,44,44,47,47,48,48,49,49,50,50,51,51,53,53,54,54,55,55,56,56,57,57,58,58],"right_children":[2,4,6,8,10,12,14,16,18,20,22,24,26,28,30,32,34,-1,36,38,40,42,44,-1,46,48,50,52,54,56,58,60,62,64,66,68,70,72,74,-1,76,78,80,82,84,-1,-1,86,88,90,92,94,-1,96,98,100,102,104,106,-1,-1,-1,-1,-1,-1,-1,-1,-1,-1,-1,-1,-1,-1,-1,-1,-1,-1,-1,-1,-1,-1,-1,-1,-1,-1,-1,-1,-1,-1,-1,-1,-1,-1,-1,-1,-1,-1,-1,-1,-1,-1,-1,-1,-1,-1,-1,-1],"split_conditions":[4.1592593E0,1E0,7.7465E1,8.72271E1,3.4642856E0,7.554398E-4,3.6E0,7.7465E1,4.0760242E1,5.0006733E0,9.11728E1,7.0405E1,4.5E0,9.2488E1,2.421875E-3,7.39193E1,8.1306E1,-1.9471793E-2,8.85534E1,9E1,3E0,7.16395E1,3.8646464E0,7.237821E-2,4.3E0,4.4E1,2E0,8.60655E1,4.2566667E0,8E1,4.590909E0,7.3601E1,4.4E0,7.93974E1,4.2E0,8.78568E1,3.7E0,9.08861E1,4.009692E-2,-1.666144E-1,1.7E1,2E0,9.02706E1,2.3727424E0,4.7E0,1.1158467E-3,2.8997017E-2,3E0,7.24376E1,7.39193E1,4.694805E0,8.58322E1,-1.3853501E-1,9.31309E1,9.5066E1,5.26E0,5.1E0,9.15252E1,3E0,-8.354038E-3,1.989009E-2,-9.186378E-4,-9.731698E-3,2.2302594E-2,1.0544269E-2,1.1329788E-2,-1.5637234E-3,-2.7121624E-3,-1.015982E-2,-3.0857087E-3,8.161008E-3,-5.677838E-2,-2.9811427E-2,1.9655613E-2,-1.2188284E-2,-1.2151435E-2,-1.06803074E-1,-3.321288E-2,-1.0271023E-2,-2.9476715E-2,-5.9471853E-2,-1.8190619E-2,-6.5985985E-2,-7.265448E-2,-2.7172433E-3,-3.008516E-2,2.860968E-3,-4.133109E-3,-3.954367E-2,-2.7754188E-3,-2.7316883E-2,7.0489137E-3,1.8402396E-2,-2.2792106E-2,1.6043855E-2,6.2485933E-3,-1.3213825E-2,7.154632E-3,2.4342889E-2,1.896336E-2,4.620291E-2,1.4231825E-2,-1.0572521E-1,8.016584E-3,1.1617684E-2,1.8549476E-2,1.2514571E-2],"split_indices":[6,5,1,1,6,8,3,1,8,8,1,1,6,1,8,1,1,0,1,5,5,1,6,0,3,5,5,1,6,4,6,1,3,1,3,1,3,1,8,0,5,4,1,8,7,0,0,5,1,1,6,1,0,1,1,3,3,1,10,0,0,0,0,0,0,0,0,0,0,0,0,0,0,0,0,0,0,0,0,0,0,0,0,0,0,0,0,0,0,0,0,0,0,0,0,0,0,0,0,0,0,0,0,0,0,0,0],"split_type":[0,0,0,0,0,0,0,0,0,0,0,0,0,0,0,0,0,0,0,0,0,0,0,0,0,0,0,0,0,0,0,0,0,0,0,0,0,0,0,0,0,0,0,0,0,0,0,0,0,0,0,0,0,0,0,0,0,0,0,0,0,0,0,0,0,0,0,0,0,0,0,0,0,0,0,0,0,0,0,0,0,0,0,0,0,0,0,0,0,0,0,0,0,0,0,0,0,0,0,0,0,0,0,0,0,0,0],"sum_hessian":[7.874E3,1.954E3,5.92E3,8E1,1.874E3,2.448E3,3.472E3,7E1,1E1,2.44E2,1.63E3,6E0,2.442E3,1.9E1,3.453E3,2.5E1,4.5E1,3E0,7E0,2.36E2,8E0,1.213E3,4.17E2,2E0,4E0,2.04E3,4.02E2,5E0,1.4E1,1.5E2,3.303E3,8E0,1.7E1,2.2E1,2.3E1,5E0,2E0,2.03E2,3.3E1,4E0,4E0,5.08E2,7.05E2,2.17E2,2E2,1E0,3E0,1.874E3,1.66E2,5E0,3.97E2,3E0,2E0,5E0,9E0,1.46E2,4E0,2.713E3,5.9E2,3E0,5E0,1.2E1,5E0,6E0,1.6E1,8E0,1.5E1,2E0,3E0,1E0,1E0,8.9E1,1.14E2,7E0,2.6E1,3E0,1E0,1.06E2,4.02E2,6.47E2,5.8E1,2.02E2,1.5E1,2E0,1.98E2,7E0,1.867E3,1.52E2,1.4E1,3E0,2E0,3.6E2,3.7E1,2E0,1E0,1E0,4E0,6E0,3E0,1.36E2,1E1,3E0,1E0,8.3E2,1.883E3,2.17E2,3.73E2],"tree_param":{"num_deleted":"0","num_feature":"11","num_nodes":"107","size_leaf_vector":"1"}},{"base_weights":[-3.6558143E-3,-4.6142295E-1,1.4744568E-1,-5.622524E-1,-1.521482E-1,2.080465E-1,6.9726154E-2,-1.8629266E-1,-6.733628E-1,-1.5256361E0,-1.1995302E-1,2.7993917E-1,1.7633152E-1,-3.7035808E-1,7.551215E-2,-2.5405693E-1,2.4011631E-1,-8.166706E-3,-7.378937E-1,-2.5527008E0,-5.740705E-1,-1.0963293E-1,-1.3051555E0,2.4400918E-1,3.2271436E-1,5.750969E-1,1.6961986E-1,-2.5671664E-1,-1.0301315E-1,1.514763E-1,4.148012E-2,-7.859776E-2,-5.0995016E-1,3.0449829E-1,-2.854688E-2,-9.587203E-1,7.196588E-2,4.4557866E-1,-7.615127E-1,-8.858985E-3,-1.551143E-1,8.759961E-2,-1.4854971E0,-8.661314E-2,-3.6240056E-1,-1.04913056E-1,-1.7068332E-2,1.9857964E-1,2.8729984E-1,1.9543258E-2,3.2936373E-1,3.9754617E-1,1.0324843E0,-2.39439E-2,1.8121785E-1,-1.2657176E0,-1.13625936E-1,9.665453E-2,1.9958945E-1,7.8424394E-2,3.9739124E-2,-1.25138005E-2,3.6000118E-3,-1.3112257E-2,-4.7891606E-2,1.0242192E-2,1.7704746E-2,-1.0289929E-2,6.196034E-3,2.1283845E-3,-1.3208614E-1,7.0090364E-3,-1.6635932E-2,6.0450514E-3,4.790336E-2,-5.7322133E-2,-3.5302024E-2,1.1707324E-2,-1.2464697E-2,-1.06057785E-1,-5.3545E-3,-4.997429E-2,-4.002904E-3,-8.385404E-2,-8.211738E-3,9.099516E-3,3.6578666E-2,2.2426872E-2,1.1723165E-2,-3.7365165E-3,7.3808813E-3,2.7132371E-2,1.5990151E-2,3.475067E-2,1.3565301E-2,5.642273E-2,2.16201E-2,7.788499E-3,-6.552095E-3,8.950728E-3,4.158697E-2,-1.0043788E-1,-1.7422589E-2,2.945534E-2,-7.908607E-3,6.3948394E-3,-1.2062195E-2,2.7561268E-2,9.310263E-3,1.2289835E-3,8.429232E-3],"categories":[],"categories_nodes":[],"categories_segments":[],"categories_sizes":[],"default_left":[0,0,0,0,0,0,0,0,0,0,0,0,0,0,0,0,0,0,0,0,0,0,0,0,0,0,0,0,0,0,0,0,0,0,0,0,0,0,0,0,0,0,0,0,0,0,0,0,0,0,0,0,0,0,0,0,0,0,0,0,0,0,0,0,0,0,0,0,0,0,0,0,0,0,0,0,0,0,0,0,0,0,0,0,0,0,0,0,0,0,0,0,0,0,0,0,0,0,0,0,0,0,0,0,0,0,0,0,0,0,0],"id":3,"left_children":[1,3,5,7,9,11,13,15,17,19,21,23,25,27,29,31,33,35,37,39,41,43,45,47,49,51,53,55,-1,57,59,61,63,65,67,69,71,73,75,-1,-1,77,79,81,83,-1,-1,85,87,89,91,93,95,97,99,101,103,105,107,-1,109,-1,-1,-1,-1,-1,-1,-1,-1,-1,-1,-1,-1,-1,-1,-1,-1,-1,-1,-1,-1,-1,-1,-1,-1,-1,-1,-1,-1,-1,-1,-1,-1,-1,-1,-1,-1,-1,-1,-1,-1,-1,-1,-1,-1,-1,-1,-1,-1,-1,-1],"loss_changes":[5.47128E2,6.112863E1,2.7995071E1,6.169864E1,2.1219322E1,7.5683594E0,6.66623E0,9.856506E0,4.9015076E1,9.285084E0,5.654595E0,1.4904404E0,6.114319E0,6.000566E0,6.648057E0,1.31152725E1,8.2165456E-1,7.8383675E0,2.9437866E1,5.978096E0,4.351575E0,2.7091994E0,2.3412695E0,1.0423164E0,9.2692184E-1,2.675499E0,5.1318054E0,4.620677E0,0E0,2.0802765E0,4.6671743E0,4.5425396E0,1.2950981E1,1.1528206E-1,2.9575405E-1,1.3593813E1,2.6691625E0,3.3784332E0,2.0991882E1,0E0,0E0,3.0522475E-1,2.4014344E0,2.511027E0,9.885027E0,0E0,0E0,2.3072548E0,2.3142967E0,1.4384586E-1,7.5019073E-1,9.004555E-1,8.795452E-2,2.5225217E0,2.9398422E0,2.0263057E0,1.0323023E0,3.9790637E0,1.8881474E0,0E0,3.468695E0,0E0,0E0,0E0,0E0,0E0,0E0,0E0,0E0,0E0,0E0,0E0,0E0,0E0,0E0,0E0,0E0,0E0,0E0,0E0,0E0,0E0,0E0,0E0,0E0,0E0,0E0,0E0,0E0,0E0,0E0,0E0,0E0,0E0,0E0,0E0,0E0,0E0,0E0,0E0,0E0,0E0,0E0,0E0,0E0,0E0,0E0,0E0,0E0,0E0,0E0],"parents":[2147483647,0,0,1,1,2,2,3,3,4,4,5,5,6,6,7,7,8,8,9,9,10,10,11,11,12,12,13,13,14,14,15,15,16,16,17,17,18,18,19,19,20,20,21,21,22,22,23,23,24,24,25,25,26,26,27,27,29,29,30,30,31,31,32,32,33,33,34,34,35,35,36,36,37,37,38,38,41,41,42,42,43,43,44,44,47,47,48,48,49,49,50,50,51,51,52,52,53,53,54,54,55,55,56,56,57,57,58,58,60,60],"right_children":[2,4,6,8,10,12,14,16,18,20,22,24,26,28,30,32,34,36,38,40,42,44,46,48,50,52,54,56,-1,58,60,62,64,66,68,70,72,74,76,-1,-1,78,80,82,84,-1,-1,86,88,90,92,94,96,98,100,102,104,106,108,-1,110,-1,-1,-1,-1,-1,-1,-1,-1,-1,-1,-1,-1,-1,-1,-1,-1,-1,-1,-1,-1,-1,-1,-1,-1,-1,-1,-1,-1,-1,-1,-1,-1,-1,-1,-1,-1,-1,-1,-1,-1,-1,-1,-1,-1,-1,-1,-1,-1,-1,-1],"split_conditions":[4.1592593E0,9.95E1,3.3233E1,1.9471E1,3.115E0,1.25345E1,4.2E0,3.54E1,4.5E0,2.6E0,3.3389924E0,5.5E0,9E0,3.72689E1,5.233E1,4E0,6.2E0,3.5E0,9.99E0,2.8E0,4.9E0,3.7338E1,2.28369E1,1.12E1,4E0,3.0881E1,4.2818184E0,3.34204E1,-1.0301315E-1,3.48817E1,4.21875E-4,4.5837615E-2,1.2891139E0,6E0,1.0843E1,3.277E1,1.2E1,4.3E0,3.2E0,-8.858985E-3,-1.551143E-1,4.1E0,2.48695E1,2.124537E-3,2E0,-1.04913056E-1,-1.7068332E-2,5.26E0,2.76E1,4.403333E0,1E1,2.30061E1,9E0,2.51721E1,6.7E0,3.6E0,2.6E0,1.2E1,4.4737267E-3,7.8424394E-2,4.518182E0,-1.25138005E-2,3.6000118E-3,-1.3112257E-2,-4.7891606E-2,1.0242192E-2,1.7704746E-2,-1.0289929E-2,6.196034E-3,2.1283845E-3,-1.3208614E-1,7.0090364E-3,-1.6635932E-2,6.0450514E-3,4.790336E-2,-5.7322133E-2,-3.5302024E-2,1.1707324E-2,-1.2464697E-2,-1.06057785E-1,-5.3545E-3,-4.997429E-2,-4.002904E-3,-8.385404E-2,-8.211738E-3,9.099516E-3,3.6578666E-2,2.2426872E-2,1.1723165E-2,-3.7365165E-3,7.3808813E-3,2.7132371E-2,1.5990151E-2,3.475067E-2,1.3565301E-2,5.642273E-2,2.16201E-2,7.788499E-3,-6.552095E-3,8.950728E-3,4.158697E-2,-1.0043788E-1,-1.7422589E-2,2.945534E-2,-7.908607E-3,6.3948394E-3,-1.2062195E-2,2.7561268E-2,9.310263E-3,1.2289835E-3,8.429232E-3],"split_indices":[6,2,0,0,6,0,6,2,7,3,8,7,2,0,2,10,7,3,2,6,3,0,0,2,3,0,6,0,0,0,8,8,8,9,0,2,9,3,3,0,0,3,0,8,9,0,0,3,2,6,2,0,9,0,3,3,3,9,8,0,6,0,0,0,0,0,0,0,0,0,0,0,0,0,0,0,0,0,0,0,0,0,0,0,0,0,0,0,0,0,0,0,0,0,0,0,0,0,0,0,0,0,0,0,0,0,0,0,0,0,0],"split_type":[0,0,0,0,0,0,0,0,0,0,0,0,0,0,0,0,0,0,0,0,0,0,0,0,0,0,0,0,0,0,0,0,0,0,0,0,0,0,0,0,0,0,0,0,0,0,0,0,0,0,0,0,0,0,0,0,0,0,0,0,0,0,0,0,0,0,0,0,0,0,0,0,0,0,0,0,0,0,0,0,0,0,0,0,0,0,0,0,0,0,0,0,0,0,0,0,0,0,0,0,0,0,0,0,0,0,0,0,0,0,0],"sum_hessian":[7.908E3,1.962E3,5.946E3,1.479E3,4.83E2,3.34E3,2.606E3,3.38E2,1.141E3,1E1,4.73E2,1.02E3,2.32E3,3.3E1,2.573E3,2.92E2,4.6E1,1.01E2,1.04E3,4E0,6E0,4.7E2,3E0,5.58E2,4.62E2,3.7E1,2.283E3,3.2E1,1E0,7.95E2,1.778E3,1.74E2,1.18E2,3.7E1,9E0,7E0,9.4E1,2E1,1.02E3,1E0,3E0,4E0,2E0,4.32E2,3.8E1,1E0,2E0,2.75E2,2.83E2,1E1,4.52E2,2.8E1,9E0,1.29E2,2.154E3,3E0,2.9E1,3.73E2,4.22E2,1E0,1.777E3,8.1E1,9.3E1,7.7E1,4.1E1,1.4E1,2.3E1,4E0,5E0,5E0,2E0,8.1E1,1.3E1,1.3E1,7E0,1.26E2,8.94E2,3E0,1E0,1E0,1E0,2E0,4.3E2,4E0,3.4E1,2.68E2,7E0,6.8E1,2.15E2,6E0,4E0,1.7E1,4.35E2,7E0,2.1E1,7E0,2E0,4.8E1,8.1E1,2.148E3,6E0,1E0,2E0,1E0,2.8E1,3.42E2,3.1E1,1.4E1,4.08E2,1.591E3,1.86E2],"tree_param":{"num_deleted":"0","num_feature":"11","num_nodes":"111","size_leaf_vector":"1"}},{"base_weights":[6.081463E-3,-4.2343518E-1,1.420369E-1,6.2428314E-2,-4.4479093E-1,5.8792636E-2,2.0413268E-1,1.3337228E-1,-4.0115798E-1,-8.256667E-1,-3.914617E-1,3.7867054E-2,1.3400458E-1,4.0867776E-2,2.159161E-1,-4.8565928E-2,2.1075763E-1,4.5527935E-2,-1.1942403E0,-1.6318339E-1,-7.547783E-1,-3.307805E-1,-4.8770076E-1,5.268757E-2,-1.2835224E-1,-9.206921E-2,1.452053E-1,5.9023544E-2,-1.04281776E-1,2.0111755E-1,2.990824E-1,9.2971995E-2,-1.5370542E-1,3.2563016E-1,-1.1550758E-2,1.3872893E-1,-7.8025023E-3,-8.557145E-3,-1.0658832E-1,-1.0334762E0,-5.185627E-1,1.9288702E-1,-3.5430852E-1,-9.809923E-1,-4.1238546E-1,6.964187E-1,5.0563276E-2,-5.92598E-2,-5.9930706E-1,5.726923E-3,-4.3531016E-1,2.0034473E-1,1.00040816E-1,7.785948E-2,-1.4047397E0,1.4941771E-1,2.2446534E-1,3.326885E-1,1.9691439E-1,-1.12804575E-2,1.0040921E-2,-1.3776401E-2,-4.9624447E-4,1.6815424E-3,1.7685454E-2,3.766454E-3,-1.6723124E-2,-5.3129913E-3,1.4389413E-2,-7.1521334E-2,-9.811449E-3,-1.6883168E-2,-5.962369E-2,2.4293965E-2,-8.68624E-4,-1.1420543E-2,-2.0706836E-2,-6.656539E-2,4.165229E-3,-3.0095601E-2,-1.47235785E-2,7.646378E-2,1.11996075E-2,9.912717E-3,2.143382E-3,-1.0400157E-3,-4.7338556E-2,-4.6362367E-2,9.451873E-3,-7.910077E-3,1.3004522E-2,-9.646288E-3,-2.5413547E-2,5.1367115E-3,1.2827498E-2,4.369991E-3,2.7130578E-2,-9.319243E-4,7.882827E-3,1.7205119E-3,-1.0707599E-1,7.0878244E-3,2.5869003E-2,2.463094E-2,1.09701045E-2,1.6223263E-2,6.042924E-2,5.3830757E-3,1.5749604E-2],"categories":[],"categories_nodes":[],"categories_segments":[],"categories_sizes":[],"default_left":[0,0,0,0,0,0,0,0,0,0,0,0,0,0,0,0,0,0,0,0,0,0,0,0,0,0,0,0,0,0,0,0,0,0,0,0,0,0,0,0,0,0,0,0,0,0,0,0,0,0,0,0,0,0,0,0,0,0,0,0,0,0,0,0,0,0,0,0,0,0,0,0,0,0,0,0,0,0,0,0,0,0,0,0,0,0,0,0,0,0,0,0,0,0,0,0,0,0,0,0,0,0,0,0,0,0,0,0,0],"id":4,"left_children":[1,3,5,7,9,11,13,15,17,19,21,23,25,27,29,31,33,35,37,-1,39,41,43,45,47,49,51,53,-1,55,57,59,61,63,65,67,-1,-1,-1,69,71,73,75,77,79,81,83,85,87,89,91,93,95,97,99,101,103,105,107,-1,-1,-1,-1,-1,-1,-1,-1,-1,-1,-1,-1,-1,-1,-1,-1,-1,-1,-1,-1,-1,-1,-1,-1,-1,-1,-1,-1,-1,-1,-1,-1,-1,-1,-1,-1,-1,-1,-1,-1,-1,-1,-1,-1,-1,-1,-1,-1,-1,-1],"loss_changes":[4.621992E2,1.9773193E1,3.1064713E1,2.7174838E0,3.670526E1,4.039729E0,6.6148987E0,1.0098697E0,3.9512172E0,3.6076843E1,9.1883545E0,4.9632354E0,1.4288645E0,9.118836E0,3.8917542E0,3.4167722E-1,1.2806177E0,1.7194682E-1,3.4718857E0,0E0,1.3815628E1,1.22043915E1,2.2518478E1,2.491879E0,5.3334894E0,9.088193E-1,1.307311E0,6.5059266E0,0E0,3.2605743E0,1.5928535E0,3.8888484E-1,2.2496977E-1,2.5867224E-1,5.301761E-1,2.496875E-1,0E0,0E0,0E0,3.2621544E1,1.4226555E1,2.6574302E0,7.008301E0,3.0310913E1,1.1823524E1,2.0182369E0,2.0862122E0,4.9296246E0,5.604413E0,9.584899E-1,8.048654E-3,1.2848492E0,1.6029637E0,1.7739968E0,3.2547011E0,2.3284798E0,2.4417267E0,2.2152443E0,1.2518177E0,0E0,0E0,0E0,0E0,0E0,0E0,0E0,0E0,0E0,0E0,0E0,0E0,0E0,0E0,0E0,0E0,0E0,0E0,0E0,0E0,0E0,0E0,0E0,0E0,0E0,0E0,0E0,0E0,0E0,0E0,0E0,0E0,0E0,0E0,0E0,0E0,0E0,0E0,0E0,0E0,0E0,0E0,0E0,0E0,0E0,0E0,0E0,0E0,0E0,0E0],"parents":[2147483647,0,0,1,1,2,2,3,3,4,4,5,5,6,6,7,7,8,8,9,9,10,10,11,11,12,12,13,13,14,14,15,15,16,16,17,17,18,18,20,20,21,21,22,22,23,23,24,24,25,25,26,26,27,27,29,29,30,30,31,31,32,32,33,33,34,34,35,35,39,39,40,40,41,41,42,42,43,43,44,44,45,45,46,46,47,47,48,48,49,49,50,50,51,51,52,52,53,53,54,54,55,55,56,56,57,57,58,58],"right_children":[2,4,6,8,10,12,14,16,18,20,22,24,26,28,30,32,34,36,38,-1,40,42,44,46,48,50,52,54,-1,56,58,60,62,64,66,68,-1,-1,-1,70,72,74,76,78,80,82,84,86,88,90,92,94,96,98,100,102,104,106,108,-1,-1,-1,-1,-1,-1,-1,-1,-1,-1,-1,-1,-1,-1,-1,-1,-1,-1,-1,-1,-1,-1,-1,-1,-1,-1,-1,-1,-1,-1,-1,-1,-1,-1,-1,-1,-1,-1,-1,-1,-1,-1,-1,-1,-1,-1,-1,-1,-1,-1],"split_conditions":[4.109091E0,1E0,7.85487E1,1.2E1,3.428E0,4.4734426E0,4.285714E0,7.7465E1,4.5E0,3E0,8E0,4.6E1,6E0,6.7E0,4.611765E0,7.39193E1,8.61632E1,8.67789E1,8.2818E1,-1.6318339E-1,9.08861E1,3.8696297E-3,1.3866424E-2,4.21875E-4,7.24376E1,4.64E0,1.9E1,2.1E1,-1.04281776E-1,9.1824E1,1.4E1,7.33E1,4.2E0,2E0,4.7E0,8.0161E1,-7.8025023E-3,-8.557145E-3,-1.0658832E-1,3.8E1,1E0,9.5E1,7.16395E1,4E0,1E0,7.0405E1,4.2444444E0,1.9638813E0,4.3E0,1.846931E1,7.39193E1,8.88036E-1,1.7E1,2.2E1,9.1683E1,5.4E0,1.025463E-3,7.8E0,9.4172E1,-1.12804575E-2,1.0040921E-2,-1.3776401E-2,-4.9624447E-4,1.6815424E-3,1.7685454E-2,3.766454E-3,-1.6723124E-2,-5.3129913E-3,1.4389413E-2,-7.1521334E-2,-9.811449E-3,-1.6883168E-2,-5.962369E-2,2.4293965E-2,-8.68624E-4,-1.1420543E-2,-2.0706836E-2,-6.656539E-2,4.165229E-3,-3.0095601E-2,-1.47235785E-2,7.646378E-2,1.11996075E-2,9.912717E-3,2.143382E-3,-1.0400157E-3,-4.7338556E-2,-4.6362367E-2,9.451873E-3,-7.910077E-3,1.3004522E-2,-9.646288E-3,-2.5413547E-2,5.1367115E-3,1.2827498E-2,4.369991E-3,2.7130578E-2,-9.319243E-4,7.882827E-3,1.7205119E-3,-1.0707599E-1,7.0878244E-3,2.5869003E-2,2.463094E-2,1.09701045E-2,1.6223263E-2,6.042924E-2,5.3830757E-3,1.5749604E-2],"split_indices":[6,5,1,9,6,6,6,1,3,5,9,5,5,7,6,1,1,1,1,0,1,8,8,8,1,6,5,4,0,1,4,1,3,9,3,1,0,0,0,5,4,5,1,6,4,1,6,8,6,8,1,8,4,5,1,3,8,7,1,0,0,0,0,0,0,0,0,0,0,0,0,0,0,0,0,0,0,0,0,0,0,0,0,0,0,0,0,0,0,0,0,0,0,0,0,0,0,0,0,0,0,0,0,0,0,0,0,0,0],"split_type":[0,0,0,0,0,0,0,0,0,0,0,0,0,0,0,0,0,0,0,0,0,0,0,0,0,0,0,0,0,0,0,0,0,0,0,0,0,0,0,0,0,0,0,0,0,0,0,0,0,0,0,0,0,0,0,0,0,0,0,0,0,0,0,0,0,0,0,0,0,0,0,0,0,0,0,0,0,0,0,0,0,0,0,0,0,0,0,0,0,0,0,0,0,0,0,0,0,0,0,0,0,0,0,0,0,0,0,0,0],"sum_hessian":[7.913E3,1.902E3,6.011E3,8E1,1.822E3,2.569E3,3.442E3,7E1,1E1,2.22E2,1.6E3,2.011E3,5.58E2,2.32E2,3.21E3,2.1E1,4.9E1,7E0,3E0,5E0,2.17E2,9.84E2,6.16E2,1.847E3,1.64E2,2.6E1,5.32E2,2.31E2,1E0,2.728E3,4.82E2,9E0,1.2E1,3.2E1,1.7E1,5E0,2E0,2E0,1E0,9.8E1,1.19E2,4.2E1,9.42E2,8E1,5.36E2,5E0,1.842E3,1.44E2,2E1,2.1E1,5E0,2.38E2,2.94E2,2.29E2,2E0,8.51E2,1.877E3,3.61E2,1.21E2,2E0,7E0,6E0,6E0,3E0,2.9E1,1.4E1,3E0,2E0,3E0,6.6E1,3.2E1,9.5E1,2.4E1,1.7E1,2.5E1,3.05E2,6.37E2,6E1,2E1,2.04E2,3.32E2,1E0,4E0,9E1,1.752E3,1.39E2,5E0,1.4E1,6E0,1.3E1,8E0,2E0,3E0,8.8E1,1.5E2,2.87E2,7E0,1.04E2,1.25E2,1E0,1E0,8.35E2,1.6E1,3.3E1,1.844E3,3.59E2,2E0,7E1,5.1E1],"tree_param":{"num_deleted":"0","num_feature":"11","num_nodes":"109","size_leaf_vector":"1"}},{"base_weights":[6.102767E-4,-4.0700215E-1,1.3760199E-1,-5.0970274E-1,-1.4469376E-1,5.647282E-2,1.9821148E-1,-1.1682885E-1,-6.247317E-1,-1.0210067E0,-1.1884395E-1,1.3460818E-1,3.4519233E-2,6.1700904E-1,1.9075644E-1,1.3968493E-1,-2.1675412E-1,-4.2601965E-2,-6.8749636E-1,1.117974E-1,-1.711869E0,-7.1581036E-2,-2.7820897E-1,2.0147581E-1,9.687596E-2,-1.7148243E-2,4.894524E-2,4.554029E-1,9.332639E-1,2.3729888E-1,1.4291367E-1,2.5127366E-1,-2.5501013E-2,-5.584606E-1,-6.239017E-2,-1.4401144E0,5.2788217E-2,-8.763239E-1,-5.7249564E-1,9.962076E-3,-3.5960674E-3,-2.1530628E0,3.527069E-2,-5.830225E-2,-7.5479037E-1,-1.5964719E0,-2.0997743E-1,1.7219959E-1,4.5635176E-1,-5.319868E-2,1.2606771E-1,2.1346435E-2,-3.0665427E-1,9.28977E-2,8.14942E-3,1.5363309E-1,7.09039E-1,1.0235798E0,1.1038574E-1,3.7095755E-1,2.277708E-1,-8.942626E-1,1.4851153E-1,2.2802215E-2,6.9665E-3,4.0635853E-3,-4.7669355E-2,-4.2336617E-2,7.4146837E-3,-1.8655619E-3,-1.0312944E-1,1.4111615E-2,-1.4012162E-1,6.0643363E-3,-9.53704E-3,-3.4261983E-2,-5.2557755E-2,1.9305563E-2,-2.9674456E-2,-7.7207887E-4,7.985115E-4,-1.1674643E-2,-1.3770019E-1,-4.9753548E-3,7.6206564E-3,1.4740879E-3,-8.21782E-3,-1.41200675E-2,-1.0153784E-1,-1.4281714E-2,-1.406049E-1,-7.011841E-2,-8.894147E-3,4.4304347E-3,1.0645866E-2,-1.0160721E-2,2.7046328E-2,8.549471E-3,-6.6756285E-3,-1.0136171E-2,7.3886635E-3,4.142828E-2,8.5377286E-4,-2.939899E-2,7.93996E-3,1.1403891E-2,4.005673E-3,-1.4445691E-3,2.3096742E-3,-5.649702E-3,1.7040035E-2,8.672198E-2,2.88809E-2,-4.2609214E-3,5.491029E-2,8.152044E-3,1.2688637E-4,1.7017566E-2,4.7586974E-2,1.0187058E-2,1.368162E-2,-1.0604968E-1,3.630094E-3,-3.429784E-3,7.983744E-3],"categories":[],"categories_nodes":[],"categories_segments":[],"categories_sizes":[],"default_left":[0,0,0,0,0,0,0,0,0,0,0,0,0,0,0,0,0,0,0,0,0,0,0,0,0,0,0,0,0,0,0,0,0,0,0,0,0,0,0,0,0,0,0,0,0,0,0,0,0,0,0,0,0,0,0,0,0,0,0,0,0,0,0,0,0,0,0,0,0,0,0,0,0,0,0,0,0,0,0,0,0,0,0,0,0,0,0,0,0,0,0,0,0,0,0,0,0,0,0,0,0,0,0,0,0,0,0,0,0,0,0,0,0,0,0,0,0,0,0,0,0,0,0,0,0],"id":5,"left_children":[1,3,5,7,9,11,13,15,17,19,21,23,25,27,29,31,33,35,37,39,41,43,45,47,49,51,53,55,57,59,61,63,65,67,69,71,73,75,77,-1,79,81,83,85,87,89,91,93,95,97,99,101,103,105,107,109,111,113,115,117,119,121,123,-1,-1,-1,-1,-1,-1,-1,-1,-1,-1,-1,-1,-1,-1,-1,-1,-1,-1,-1,-1,-1,-1,-1,-1,-1,-1,-1,-1,-1,-1,-1,-1,-1,-1,-1,-1,-1,-1,-1,-1,-1,-1,-1,-1,-1,-1,-1,-1,-1,-1,-1,-1,-1,-1,-1,-1,-1,-1,-1,-1,-1,-1],"loss_changes":[4.4308682E2,5.36969E1,2.9192047E1,6.473221E1,1.2632035E1,4.354061E0,1.0494476E1,8.386377E0,4.0490387E1,1.2713167E1,4.107652E0,1.385829E0,1.48037E0,2.5904045E0,7.405571E0,1.7022338E0,1.236074E1,1.4606699E1,2.1235321E1,7.134984E-2,7.7842083E0,3.8026042E0,1.0908166E1,1.4137764E0,1.5750844E0,4.8432336E0,2.7820978E0,3.0291958E0,1.2990704E0,2.070282E0,9.712643E0,1.1972117E0,3.8422546E0,1.4998386E1,8.099586E0,1.7215626E1,1.741316E0,1.1874359E1,1.2806961E1,0E0,1.1736966E-3,8.585346E0,6.2530786E-2,3.8870564E0,4.2485313E0,8.757699E0,4.3428435E0,5.9719133E-1,1.2255783E0,1.0851489E0,2.1709342E0,1.3097363E0,6.771511E0,1.2726755E0,1.1371359E0,1.0365875E0,1.9628572E0,1.5002556E0,1.6622499E-2,1.6491594E0,1.6876755E0,1.08287325E1,3.9905777E0,0E0,0E0,0E0,0E0,0E0,0E0,0E0,0E0,0E0,0E0,0E0,0E0,0E0,0E0,0E0,0E0,0E0,0E0,0E0,0E0,0E0,0E0,0E0,0E0,0E0,0E0,0E0,0E0,0E0,0E0,0E0,0E0,0E0,0E0,0E0,0E0,0E0,0E0,0E0,0E0,0E0,0E0,0E0,0E0,0E0,0E0,0E0,0E0,0E0,0E0,0E0,0E0,0E0,0E0,0E0,0E0,0E0,0E0,0E0,0E0,0E0,0E0],"parents":[2147483647,0,0,1,1,2,2,3,3,4,4,5,5,6,6,7,7,8,8,9,9,10,10,11,11,12,12,13,13,14,14,15,15,16,16,17,17,18,18,19,19,20,20,21,21,22,22,23,23,24,24,25,25,26,26,27,27,28,28,29,29,30,30,31,31,32,32,33,33,34,34,35,35,36,36,37,37,38,38,40,40,41,41,42,42,43,43,44,44,45,45,46,46,47,47,48,48,49,49,50,50,51,51,52,52,53,53,54,54,55,55,56,56,57,57,58,58,59,59,60,60,61,61,62,62],"right_children":[2,4,6,8,10,12,14,16,18,20,22,24,26,28,30,32,34,36,38,40,42,44,46,48,50,52,54,56,58,60,62,64,66,68,70,72,74,76,78,-1,80,82,84,86,88,90,92,94,96,98,100,102,104,106,108,110,112,114,116,118,120,122,124,-1,-1,-1,-1,-1,-1,-1,-1,-1,-1,-1,-1,-1,-1,-1,-1,-1,-1,-1,-1,-1,-1,-1,-1,-1,-1,-1,-1,-1,-1,-1,-1,-1,-1,-1,-1,-1,-1,-1,-1,-1,-1,-1,-1,-1,-1,-1,-1,-1,-1,-1,-1,-1,-1,-1,-1,-1,-1,-1,-1,-1,-1],"split_conditions":[4.1592593E0,8.49E1,7.85487E1,1.8018E1,3.115E0,1.8E1,9E0,5.1E0,4.5E0,2.4401E1,3.67503E1,7.1398E1,4.325E0,9.4334E1,2.35263E1,9.29151E1,3.3E1,3.5E0,4.8E1,5E0,1.779E2,3.4335458E0,3.6781E1,4.66E0,3.2978E1,4.4E1,1.20222E2,2.80794E1,6.9E1,3.3684028E-3,3.6E0,4E0,2.1994636E0,3.8407407E0,2.16E2,8.353976E-1,4.5E0,3.3061E1,9.99E0,9.962076E-3,2.2753E1,2.8E0,3.6461E1,3.8108695E0,9.46399E1,3.0887067E-1,2.124537E-3,7.0056E1,6.90816E1,4.4E0,4.2916665E0,5.4E0,4.4E0,4.009692E-2,1.984E2,2.35711E-1,2.82528E1,4.3206897E0,9.46759E1,5.26E0,1.5253433E0,5.4E0,4.269697E0,2.2802215E-2,6.9665E-3,4.0635853E-3,-4.7669355E-2,-4.2336617E-2,7.4146837E-3,-1.8655619E-3,-1.0312944E-1,1.4111615E-2,-1.4012162E-1,6.0643363E-3,-9.53704E-3,-3.4261983E-2,-5.2557755E-2,1.9305563E-2,-2.9674456E-2,-7.7207887E-4,7.985115E-4,-1.1674643E-2,-1.3770019E-1,-4.9753548E-3,7.6206564E-3,1.4740879E-3,-8.21782E-3,-1.41200675E-2,-1.0153784E-1,-1.4281714E-2,-1.406049E-1,-7.011841E-2,-8.894147E-3,4.4304347E-3,1.0645866E-2,-1.0160721E-2,2.7046328E-2,8.549471E-3,-6.6756285E-3,-1.0136171E-2,7.3886635E-3,4.142828E-2,8.5377286E-4,-2.939899E-2,7.93996E-3,1.1403891E-2,4.005673E-3,-1.4445691E-3,2.3096742E-3,-5.649702E-3,1.7040035E-2,8.672198E-2,2.88809E-2,-4.2609214E-3,5.491029E-2,8.152044E-3,1.2688637E-4,1.7017566E-2,4.7586974E-2,1.0187058E-2,1.368162E-2,-1.0604968E-1,3.630094E-3,-3.429784E-3,7.983744E-3],"split_indices":[6,2,1,0,6,5,2,7,7,0,0,1,6,1,0,1,5,3,5,7,2,8,0,6,0,5,2,0,5,8,3,3,8,6,5,8,3,0,2,0,0,6,0,6,1,8,8,1,1,3,6,2,3,8,2,8,0,6,1,3,8,7,6,0,0,0,0,0,0,0,0,0,0,0,0,0,0,0,0,0,0,0,0,0,0,0,0,0,0,0,0,0,0,0,0,0,0,0,0,0,0,0,0,0,0,0,0,0,0,0,0,0,0,0,0,0,0,0,0,0,0,0,0,0,0],"split_type":[0,0,0,0,0,0,0,0,0,0,0,0,0,0,0,0,0,0,0,0,0,0,0,0,0,0,0,0,0,0,0,0,0,0,0,0,0,0,0,0,0,0,0,0,0,0,0,0,0,0,0,0,0,0,0,0,0,0,0,0,0,0,0,0,0,0,0,0,0,0,0,0,0,0,0,0,0,0,0,0,0,0,0,0,0,0,0,0,0,0,0,0,0,0,0,0,0,0,0,0,0,0,0,0,0,0,0,0,0,0,0,0,0,0,0,0,0,0,0,0,0,0,0,0,0],"sum_hessian":[7.933E3,1.995E3,5.938E3,1.433E3,5.62E2,2.54E3,3.398E3,3.25E2,1.108E3,1.5E1,5.47E2,5.56E2,1.984E3,5.8E1,3.34E3,9.1E1,2.34E2,1.08E2,1E3,6E0,9E0,4.23E2,1.24E2,1.99E2,3.57E2,4.33E2,1.551E3,4E1,1.8E1,1.691E3,1.649E3,5.4E1,3.7E1,7.2E1,1.62E2,6E0,1.02E2,3.76E2,6.24E2,3E0,3E0,7E0,2E0,4.16E2,7E0,5E0,1.19E2,1.8E2,1.9E1,5.8E1,2.99E2,3.83E2,5E1,7.46E2,8.05E2,1.9E1,2.1E1,1.6E1,2E0,1.1E2,1.581E3,8E0,1.641E3,1.8E1,3.6E1,3.4E1,3E0,5.1E1,2.1E1,1.61E2,1E0,3E0,3E0,8E1,2.2E1,1.82E2,1.94E2,1.3E1,6.11E2,2E0,1E0,2E0,5E0,1E0,1E0,2.28E2,1.88E2,6E0,1E0,3E0,2E0,2E0,1.17E2,6E1,1.2E2,2E0,1.7E1,1.5E1,4.3E1,1.8E1,2.81E2,1E0,3.82E2,3.1E1,1.9E1,6.3E1,6.83E2,4.08E2,3.97E2,8E0,1.1E1,1E0,2E1,1E0,1.5E1,1E0,1E0,1.06E2,4E0,1.041E3,5.4E2,3E0,5E0,8E1,1.561E3],"tree_param":{"num_deleted":"0","num_feature":"11","num_nodes":"125","size_leaf_vector":"1"}},{"base_weights":[-4.2044134E-3,-4.0137985E-1,1.24333315E-1,-4.8974955E-1,-1.4208879E-1,2.233624E-1,8.293992E-2,-9.6619844E-2,-5.977661E-1,-1.2629167E0,-1.1388956E-1,5.6177604E-1,2.1816534E-1,6.1449554E-2,1.6051076E-1,9.6041024E-2,-3.3709732E-1,-8.922014E-2,-6.535737E-1,1.15102194E-1,-1.966314E0,-1.0415716E-1,-1.0215296E0,6.334564E-1,1.340271E-1,2.7904576E-1,1.9481088E-1,4.426501E-1,5.723148E-2,1.4132354E-1,3.1021473E-1,1.1984501E-1,-1.005512E-1,-4.761309E-1,2.8547665E-1,1.7036313E-2,-6.902587E-1,-8.826732E-1,-5.435486E-1,1.0338196E-2,-7.4634555E-4,-2.2896738E0,7.430136E-3,-1.3812964E-1,9.2531934E-2,-2.3124188E-1,-1.04567006E-1,-7.123947E-4,6.649779E-1,1.237154E-4,8.314836E-3,2.295238E-1,3.3210677E-1,-1.7026639E-1,1.987597E-1,5.765172E-1,1.9110763E-1,-1.2553379E-1,6.2565215E-2,1.08082645E-1,1.7631495E-1,8.080932E-2,3.5784402E-1,-1.3530296E-3,1.3612694E-2,-1.3701989E-3,-3.07538E-2,2.991724E-2,1.1723664E-2,-3.3436865E-3,1.619476E-2,1.3823205E-3,-8.598935E-2,-1.3925038E-1,-4.1023348E-2,2.2223132E-2,-2.7935475E-2,-1.3194732E-1,-4.850972E-3,3.8832834E-3,-8.741666E-3,6.143401E-3,-2.231572E-2,1.3037681E-3,-1.6285306E-2,3.497471E-2,-6.336689E-4,1.4389167E-2,7.0075206E-3,2.1006633E-2,1.0288893E-2,1.0909114E-2,-4.5655522E-2,9.331106E-3,1.4818114E-2,4.27658E-2,1.4813158E-2,1.6048409E-2,-1.0689291E-2,-1.34526035E-2,3.567711E-3,4.7230227E-3,1.2097262E-3,9.034115E-3,3.830044E-3,1.1326871E-2,6.4453618E-3,8.019681E-3,-5.9177796E-3,2.1687847E-2,1.0580824E-2],"categories":[],"categories_nodes":[],"categories_segments":[],"categories_sizes":[],"default_left":[0,0,0,0,0,0,0,0,0,0,0,0,0,0,0,0,0,0,0,0,0,0,0,0,0,0,0,0,0,0,0,0,0,0,0,0,0,0,0,0,0,0,0,0,0,0,0,0,0,0,0,0,0,0,0,0,0,0,0,0,0,0,0,0,0,0,0,0,0,0,0,0,0,0,0,0,0,0,0,0,0,0,0,0,0,0,0,0,0,0,0,0,0,0,0,0,0,0,0,0,0,0,0,0,0,0,0,0,0,0,0],"id":6,"left_children":[1,3,5,7,9,11,13,15,17,19,21,23,25,27,29,31,33,35,37,39,41,43,45,47,49,51,53,55,57,59,61,63,-1,65,67,69,71,73,75,-1,-1,77,-1,79,81,83,-1,-1,85,-1,-1,87,89,91,93,95,97,99,101,103,105,107,109,-1,-1,-1,-1,-1,-1,-1,-1,-1,-1,-1,-1,-1,-1,-1,-1,-1,-1,-1,-1,-1,-1,-1,-1,-1,-1,-1,-1,-1,-1,-1,-1,-1,-1,-1,-1,-1,-1,-1,-1,-1,-1,-1,-1,-1,-1,-1,-1],"loss_changes":[4.0382037E2,4.4245087E1,2.4477997E1,6.1176056E1,1.5438159E1,2.974617E0,7.018318E0,1.4487522E1,3.2040283E1,1.1857862E1,4.151356E0,7.1229076E-1,2.4139328E0,5.2856684E0,2.5815353E0,8.968249E0,1.2167582E1,7.228416E0,2.5205841E1,6.26798E-2,5.811285E0,3.2067842E0,3.7436852E0,4.5864105E-1,2.0814322E-2,1.1824341E0,1.8474007E0,1.1020603E0,3.1935701E0,9.2541885E-1,1.0965033E0,3.8807878E0,0E0,7.0908623E0,2.7459478E-1,2.5192685E0,1.2612307E1,3.664795E1,1.0598907E1,0E0,0E0,5.104809E0,0E0,3.2451367E0,1.2154381E0,1.0572198E-1,0E0,0E0,5.0005436E-1,0E0,0E0,1.2665854E0,2.4600735E0,4.2390194E0,1.41959E0,1.5436945E0,8.047341E-1,2.6471012E0,3.8846369E0,9.4381094E-1,9.0888405E-1,3.2014108E-1,8.5175705E-1,0E0,0E0,0E0,0E0,0E0,0E0,0E0,0E0,0E0,0E0,0E0,0E0,0E0,0E0,0E0,0E0,0E0,0E0,0E0,0E0,0E0,0E0,0E0,0E0,0E0,0E0,0E0,0E0,0E0,0E0,0E0,0E0,0E0,0E0,0E0,0E0,0E0,0E0,0E0,0E0,0E0,0E0,0E0,0E0,0E0,0E0,0E0,0E0],"parents":[2147483647,0,0,1,1,2,2,3,3,4,4,5,5,6,6,7,7,8,8,9,9,10,10,11,11,12,12,13,13,14,14,15,15,16,16,17,17,18,18,19,19,20,20,21,21,22,22,23,23,24,24,25,25,26,26,27,27,28,28,29,29,30,30,31,31,33,33,34,34,35,35,36,36,37,37,38,38,41,41,43,43,44,44,45,45,48,48,51,51,52,52,53,53,54,54,55,55,56,56,57,57,58,58,59,59,60,60,61,61,62,62],"right_children":[2,4,6,8,10,12,14,16,18,20,22,24,26,28,30,32,34,36,38,40,42,44,46,48,50,52,54,56,58,60,62,64,-1,66,68,70,72,74,76,-1,-1,78,-1,80,82,84,-1,-1,86,-1,-1,88,90,92,94,96,98,100,102,104,106,108,110,-1,-1,-1,-1,-1,-1,-1,-1,-1,-1,-1,-1,-1,-1,-1,-1,-1,-1,-1,-1,-1,-1,-1,-1,-1,-1,-1,-1,-1,-1,-1,-1,-1,-1,-1,-1,-1,-1,-1,-1,-1,-1,-1,-1,-1,-1,-1,-1],"split_conditions":[4.109091E0,9.95E1,2.35263E1,1.8018E1,3.115E0,9E0,4.5111113E0,4E0,4.5E0,2.311E1,2.11E2,1.7E1,9.0886E0,9E0,4.728E0,2.15E2,3.54E1,3.473E1,4.2E1,1.0853E2,3.72689E1,1.04E2,3.6983051E0,5E0,7.5E1,4.4976745E0,4.1592593E0,1E0,4.2E0,7E0,2.76033E1,1.0792E1,-1.005512E-1,3E1,4.8E0,1.605E1,1E0,2.0792E1,9.99E0,1.0338196E-2,-7.4634555E-4,4E0,7.430136E-3,3.2E1,2.323E2,1.1726E2,-1.04567006E-1,-7.123947E-4,1.2E1,1.237154E-4,8.314836E-3,2.941E1,1.3E1,9.4E1,4.64E0,3.3182E1,7E0,5.92E1,9.496E1,5.4E0,3.473E1,1.2E1,2E1,-1.3530296E-3,1.3612694E-2,-1.3701989E-3,-3.07538E-2,2.991724E-2,1.1723664E-2,-3.3436865E-3,1.619476E-2,1.3823205E-3,-8.598935E-2,-1.3925038E-1,-4.1023348E-2,2.2223132E-2,-2.7935475E-2,-1.3194732E-1,-4.850972E-3,3.8832834E-3,-8.741666E-3,6.143401E-3,-2.231572E-2,1.3037681E-3,-1.6285306E-2,3.497471E-2,-6.336689E-4,1.4389167E-2,7.0075206E-3,2.1006633E-2,1.0288893E-2,1.0909114E-2,-4.5655522E-2,9.331106E-3,1.4818114E-2,4.27658E-2,1.4813158E-2,1.6048409E-2,-1.0689291E-2,-1.34526035E-2,3.567711E-3,4.7230227E-3,1.2097262E-3,9.034115E-3,3.830044E-3,1.1326871E-2,6.4453618E-3,8.019681E-3,-5.9177796E-3,2.1687847E-2,1.0580824E-2],"split_indices":[6,2,0,0,6,2,6,10,7,0,5,4,0,2,6,5,2,2,5,2,0,5,6,5,5,6,6,4,6,9,0,0,0,2,7,2,5,0,2,0,0,4,0,5,2,2,0,0,9,0,0,2,4,5,6,0,9,2,2,7,2,5,5,0,0,0,0,0,0,0,0,0,0,0,0,0,0,0,0,0,0,0,0,0,0,0,0,0,0,0,0,0,0,0,0,0,0,0,0,0,0,0,0,0,0,0,0,0,0,0,0],"split_type":[0,0,0,0,0,0,0,0,0,0,0,0,0,0,0,0,0,0,0,0,0,0,0,0,0,0,0,0,0,0,0,0,0,0,0,0,0,0,0,0,0,0,0,0,0,0,0,0,0,0,0,0,0,0,0,0,0,0,0,0,0,0,0,0,0,0,0,0,0,0,0,0,0,0,0,0,0,0,0,0,0,0,0,0,0,0,0,0,0,0,0,0,0,0,0,0,0,0,0,0,0,0,0,0,0,0,0,0,0,0,0],"sum_hessian":[7.908E3,1.933E3,5.975E3,1.441E3,4.92E2,1.76E3,4.215E3,3.11E2,1.13E3,1.1E1,4.81E2,2.5E1,1.735E3,3.302E3,9.13E2,1.73E2,1.38E2,1.12E2,1.018E3,4E0,7E0,4.77E2,4E0,2.1E1,4E0,4.78E2,1.257E3,3.5E1,3.267E3,8.11E2,1.02E2,1.72E2,1E0,1.13E2,2.5E1,9.6E1,1.6E1,3.28E2,6.9E2,2E0,2E0,6E0,1E0,4.07E2,7E1,3E0,1E0,1E0,2E1,1E0,3E0,2.5E2,2.28E2,1.3E1,1.244E3,2.2E1,1.3E1,9.2E1,3.175E3,4.18E2,3.93E2,1.8E1,8.4E1,8.8E1,8.4E1,2.7E1,8.6E1,2E0,2.3E1,7.6E1,2E1,1E1,6E0,9E0,3.19E2,1E1,6.8E2,5E0,1E0,5.9E1,3.48E2,6.7E1,3E0,1E0,2E0,1.9E1,1E0,1.5E2,1E2,1.33E2,9.5E1,9E0,4E0,1.109E3,1.35E2,1E1,1.2E1,1E1,3E0,5.3E1,3.9E1,1.733E3,1.442E3,1.25E2,2.93E2,1.89E2,2.04E2,1.3E1,5E0,5.4E1,3E1],"tree_param":{"num_deleted":"0","num_feature":"11","num_nodes":"111","size_leaf_vector":"1"}},{"base_weights":[4.9683556E-4,-3.4901184E-1,1.1993338E-1,-4.2737076E-1,-1.08995795E-1,2.1202348E-1,8.195688E-2,-8.4010646E-2,-5.24412E-1,-9.822102E-1,-8.9130044E-2,5.076529E-1,2.0738283E-1,4.8229727E-1,7.671271E-2,6.44934E-2,-2.3201759E-1,-1.1724711E-1,-5.8539295E-1,6.901208E-2,-1.8697308E0,-1.168925E-1,1.3206635E-1,3.1057382E-1,6.808416E-1,2.0617352E-1,5.6609977E-2,-1.3427257E-3,5.7905513E-1,1.24049686E-1,4.4855975E-2,-6.1991736E-2,3.7551805E-1,-3.6358425E-1,1.7447165E-1,-1.0400697E0,-3.312253E-2,-8.2661533E-1,-4.8413676E-1,9.993586E-3,-4.6385646E-2,-2.3016322E0,7.2443844E-3,-9.7341344E-2,-4.976943E-1,2.0230985E-1,-1.672994E-1,1.1239229E-1,4.4516093E-1,1.0481342E-1,3.8802277E-2,2.0965686E-1,-1.8887684E-3,3.9323438E-2,-1.7626275E-1,5.6942333E-2,7.2660327E-1,9.161012E-2,2.2368814E-1,1.0726758E-1,2.1056764E-2,-7.0453095E-3,1.6025059E-2,5.021459E-2,1.3221328E-2,-4.336731E-3,-2.8549073E-2,1.3667494E-2,-2.3217805E-2,2.7180554E-3,-1.1629828E-1,-2.675284E-4,-1.0011282E-1,-5.64084E-2,-3.23669E-2,2.2701442E-2,-2.5089E-2,-7.214705E-4,-3.5563589E-3,-1.4148717E-1,-4.7297003E-3,3.402156E-3,-6.9758794E-3,-6.742737E-3,-6.020543E-2,1.2961621E-2,-4.6680556E-3,2.954636E-3,-1.8290414E-2,8.2499115E-3,-5.0810813E-3,1.0994196E-2,3.73664E-2,7.7403784E-3,1.2062788E-4,1.1713892E-2,8.690157E-3,4.8193075E-3,-9.912486E-3,-2.1835953E-2,1.3375957E-3,-6.6477247E-3,3.0382602E-2,8.348479E-2,3.248783E-2,-5.1024794E-3,5.2605974E-3,7.494678E-3,1.6305942E-2,-6.353255E-2,5.65901E-3,-2.4089955E-2,1.2357711E-3],"categories":[],"categories_nodes":[],"categories_segments":[],"categories_sizes":[],"default_left":[0,0,0,0,0,0,0,0,0,0,0,0,0,0,0,0,0,0,0,0,0,0,0,0,0,0,0,0,0,0,0,0,0,0,0,0,0,0,0,0,0,0,0,0,0,0,0,0,0,0,0,0,0,0,0,0,0,0,0,0,0,0,0,0,0,0,0,0,0,0,0,0,0,0,0,0,0,0,0,0,0,0,0,0,0,0,0,0,0,0,0,0,0,0,0,0,0,0,0,0,0,0,0,0,0,0,0,0,0,0,0,0,0],"id":7,"left_children":[1,3,5,7,9,11,13,15,17,19,21,23,25,27,29,31,33,35,37,39,41,43,45,47,49,51,-1,53,55,57,59,61,63,65,67,69,71,73,75,-1,77,79,-1,81,83,85,87,89,91,93,-1,95,97,-1,99,101,103,105,107,109,111,-1,-1,-1,-1,-1,-1,-1,-1,-1,-1,-1,-1,-1,-1,-1,-1,-1,-1,-1,-1,-1,-1,-1,-1,-1,-1,-1,-1,-1,-1,-1,-1,-1,-1,-1,-1,-1,-1,-1,-1,-1,-1,-1,-1,-1,-1,-1,-1,-1,-1,-1,-1],"loss_changes":[3.314066E2,3.798198E1,2.0675903E1,5.073578E1,8.56864E0,2.2640228E0,8.761793E0,7.422098E0,2.9428528E1,1.039183E1,3.0183656E0,6.7597675E-1,1.6700516E0,2.5277596E0,6.2345467E0,6.671738E0,9.101629E0,1.2076152E1,2.4831116E1,9.987659E-2,5.5541763E0,3.1901798E0,1.1904135E0,3.2338476E-1,6.315818E-1,1.2332001E0,0E0,1.5166651E0,3.4252815E0,5.357935E0,3.6739755E0,3.6974509E0,3.157158E0,7.2999573E0,2.779911E0,1.8421654E1,7.864173E0,1.5704407E1,1.2310974E1,0E0,2.1362612E-3,5.5601273E0,0E0,2.9042413E0,5.220236E0,7.815678E-1,5.159659E-1,9.557618E-2,3.8024485E-1,1.498485E-2,0E0,1.4361343E0,5.7873183E-1,0E0,4.8757112E-1,1.2311484E0,1.4516773E0,3.3218336E0,3.035122E0,5.70828E0,3.310629E0,0E0,0E0,0E0,0E0,0E0,0E0,0E0,0E0,0E0,0E0,0E0,0E0,0E0,0E0,0E0,0E0,0E0,0E0,0E0,0E0,0E0,0E0,0E0,0E0,0E0,0E0,0E0,0E0,0E0,0E0,0E0,0E0,0E0,0E0,0E0,0E0,0E0,0E0,0E0,0E0,0E0,0E0,0E0,0E0,0E0,0E0,0E0,0E0,0E0,0E0,0E0,0E0],"parents":[2147483647,0,0,1,1,2,2,3,3,4,4,5,5,6,6,7,7,8,8,9,9,10,10,11,11,12,12,13,13,14,14,15,15,16,16,17,17,18,18,19,19,20,20,21,21,22,22,23,23,24,24,25,25,27,27,28,28,29,29,30,30,31,31,32,32,33,33,34,34,35,35,36,36,37,37,38,38,40,40,41,41,43,43,44,44,45,45,46,46,47,47,48,48,49,49,51,51,52,52,54,54,55,55,56,56,57,57,58,58,59,59,60,60],"right_children":[2,4,6,8,10,12,14,16,18,20,22,24,26,28,30,32,34,36,38,40,42,44,46,48,50,52,-1,54,56,58,60,62,64,66,68,70,72,74,76,-1,78,80,-1,82,84,86,88,90,92,94,-1,96,98,-1,100,102,104,106,108,110,112,-1,-1,-1,-1,-1,-1,-1,-1,-1,-1,-1,-1,-1,-1,-1,-1,-1,-1,-1,-1,-1,-1,-1,-1,-1,-1,-1,-1,-1,-1,-1,-1,-1,-1,-1,-1,-1,-1,-1,-1,-1,-1,-1,-1,-1,-1,-1,-1,-1,-1,-1,-1],"split_conditions":[4.1592593E0,9.95E1,2.35263E1,1.9471E1,3.115E0,9E0,9E0,3E1,4.8E0,2.4694E1,6.5E0,9.4334E1,7.7E0,7.0056E1,3.5E1,1.032E1,3.54E1,3.5E0,4.2E1,1.0853E2,3.72689E1,6.4E0,7.20322E1,4.7E0,6.988E0,7.7E0,5.6609977E-2,4.2916665E0,2.80794E1,1.12E1,1.8E1,1.357E1,2.6E0,5.2E0,9.4565E1,3.277E1,3.69565E1,3.56E0,9.99E0,9.993586E-3,2.2753E1,5E0,7.2443844E-3,1.159E2,3.66548E1,2.06E2,6.7E0,9.42625E1,5.6E0,9.46759E1,3.8802277E-2,2.941E1,1.5E1,3.9323438E-2,4.390909E0,1.88E2,2.82528E1,4.2785716E0,4.4416666E0,3.6E0,4.177778E0,-7.0453095E-3,1.6025059E-2,5.021459E-2,1.3221328E-2,-4.336731E-3,-2.8549073E-2,1.3667494E-2,-2.3217805E-2,2.7180554E-3,-1.1629828E-1,-2.675284E-4,-1.0011282E-1,-5.64084E-2,-3.23669E-2,2.2701442E-2,-2.5089E-2,-7.214705E-4,-3.5563589E-3,-1.4148717E-1,-4.7297003E-3,3.402156E-3,-6.9758794E-3,-6.742737E-3,-6.020543E-2,1.2961621E-2,-4.6680556E-3,2.954636E-3,-1.8290414E-2,8.2499115E-3,-5.0810813E-3,1.0994196E-2,3.73664E-2,7.7403784E-3,1.2062788E-4,1.1713892E-2,8.690157E-3,4.8193075E-3,-9.912486E-3,-2.1835953E-2,1.3375957E-3,-6.6477247E-3,3.0382602E-2,8.348479E-2,3.248783E-2,-5.1024794E-3,5.2605974E-3,7.494678E-3,1.6305942E-2,-6.353255E-2,5.65901E-3,-2.4089955E-2,1.2357711E-3],"split_indices":[6,2,0,0,6,2,2,2,7,0,7,1,3,1,2,2,2,3,5,2,0,7,1,3,0,7,0,6,0,2,5,0,3,7,1,2,0,6,2,0,0,3,0,2,0,5,7,1,7,1,0,2,4,0,6,5,0,6,6,3,6,0,0,0,0,0,0,0,0,0,0,0,0,0,0,0,0,0,0,0,0,0,0,0,0,0,0,0,0,0,0,0,0,0,0,0,0,0,0,0,0,0,0,0,0,0,0,0,0,0,0,0,0],"split_type":[0,0,0,0,0,0,0,0,0,0,0,0,0,0,0,0,0,0,0,0,0,0,0,0,0,0,0,0,0,0,0,0,0,0,0,0,0,0,0,0,0,0,0,0,0,0,0,0,0,0,0,0,0,0,0,0,0,0,0,0,0,0,0,0,0,0,0,0,0,0,0,0,0,0,0,0,0,0,0,0,0,0,0,0,0,0,0,0,0,0,0,0,0,0,0,0,0,0,0,0,0,0,0,0,0,0,0,0,0,0,0,0,0],"sum_hessian":[7.937E3,2.021E3,5.916E3,1.523E3,4.98E2,1.726E3,4.19E3,3.36E2,1.187E3,1E1,4.88E2,2.5E1,1.701E3,5.3E1,4.137E3,1.68E2,1.68E2,1.55E2,1.032E3,5E0,5E0,4.34E2,5.4E1,1.3E1,1.2E1,1.7E3,1E0,9E0,4.4E1,1.663E3,2.474E3,1.2E2,4.8E1,1.27E2,4.1E1,1.2E1,1.43E2,3.03E2,7.29E2,2E0,3E0,4E0,1E0,4.14E2,2E1,4.4E1,1E1,6E0,7E0,2E0,1E1,1.672E3,2.8E1,1E0,8E0,1E1,3.4E1,1.256E3,4.07E2,6.82E2,1.792E3,1E2,2E1,6E0,4.2E1,5.5E1,7.2E1,3.6E1,5E0,7E0,5E0,1.42E2,1E0,1.11E2,1.92E2,1.3E1,7.16E2,2E0,1E0,3E0,1E0,8.4E1,3.3E2,1.4E1,6E0,3.7E1,7E0,5E0,5E0,5E0,1E0,5E0,2E0,1E0,1E0,9.88E2,6.84E2,1.9E1,9E0,3E0,5E0,8E0,2E0,1E0,3.3E1,8.2E1,1.174E3,2.38E2,1.69E2,2E0,6.8E2,1.2E1,1.78E3],"tree_param":{"num_deleted":"0","num_feature":"11","num_nodes":"113","size_leaf_vector":"1"}},{"base_weights":[-6.109611E-3,-3.659422E-1,1.1580059E-1,-4.6112943E-1,-7.831606E-2,1.9992712E-1,8.094118E-2,-9.1112316E-2,-5.7298326E-1,-1.3187441E0,-5.030989E-2,4.5263162E-1,1.959656E-1,5.2024007E-1,7.593684E-2,5.65376E-2,-2.4163283E-1,-7.7923596E-2,-6.3126284E-1,2.0786405E-2,-1.8236662E0,-4.2319246E-2,-8.169385E-1,5.377419E-1,7.9307E-2,2.1406777E-1,1.5250516E-1,-9.055771E-2,6.118338E-1,1.331497E-1,5.1275104E-2,-1.04723826E-1,4.1908085E-1,-3.8929853E-1,2.4687533E-1,3.6605168E-2,-4.6781063E-1,-9.0708363E-1,-5.6976724E-1,3.1247735E-3,-6.97422E-4,-4.469848E-3,-2.3868566E0,-1.12135075E-1,5.31204E-2,-1.0183612E-1,-2.8119087E-3,-5.998814E-3,5.7662666E-1,-9.694338E-4,1.0292387E-1,1.7786193E-1,2.333076E-1,-8.789294E-3,1.8147594E-1,-1.3562877E-1,4.4967174E-3,7.565673E-1,3.105246E-1,1.2134728E-1,2.7339175E-1,1.0161984E-1,1.9607488E-2,-3.9709296E-2,-1.2788062E-4,1.8318713E-2,4.9974825E-2,-2.9647857E-2,-3.342943E-3,1.6826795E-2,1.3936419E-3,-1.997272E-3,1.4795464E-2,-6.356088E-2,-4.1443505E-3,-5.1620852E-2,-1.0837893E-2,-3.3582926E-2,-2.2231707E-2,-1.460367E-1,7.0632696E-3,7.1204844E-4,-1.284746E-2,4.263622E-3,-2.1538654E-2,8.229813E-3,-1.2625909E-2,1.2615378E-2,3.3395626E-2,1.1761189E-4,6.373936E-3,1.46554625E-2,8.061464E-3,1.32971555E-2,8.515759E-3,-8.959281E-3,1.5642338E-3,8.65681E-3,2.7571335E-2,-1.9994378E-3,-7.3379516E-3,2.6717529E-2,5.7081427E-2,1.0093338E-2,2.7943356E-2,4.8267725E-3,8.555398E-3,1.1944201E-2,5.0367434E-2,5.654693E-3,-6.1098966E-3,2.6018303E-3,-1.0161794E-3],"categories":[],"categories_nodes":[],"categories_segments":[],"categories_sizes":[],"default_left":[0,0,0,0,0,0,0,0,0,0,0,0,0,0,0,0,0,0,0,0,0,0,0,0,0,0,0,0,0,0,0,0,0,0,0,0,0,0,0,0,0,0,0,0,0,0,0,0,0,0,0,0,0,0,0,0,0,0,0,0,0,0,0,0,0,0,0,0,0,0,0,0,0,0,0,0,0,0,0,0,0,0,0,0,0,0,0,0,0,0,0,0,0,0,0,0,0,0,0,0,0,0,0,0,0,0,0,0,0,0,0,0,0],"id":8,"left_children":[1,3,5,7,9,11,13,15,17,19,21,23,25,27,29,31,33,35,37,39,41,43,45,47,49,51,53,55,57,59,61,63,65,67,69,71,73,75,77,-1,-1,-1,79,81,83,-1,85,-1,87,-1,89,91,93,95,97,99,-1,101,103,105,107,109,111,-1,-1,-1,-1,-1,-1,-1,-1,-1,-1,-1,-1,-1,-1,-1,-1,-1,-1,-1,-1,-1,-1,-1,-1,-1,-1,-1,-1,-1,-1,-1,-1,-1,-1,-1,-1,-1,-1,-1,-1,-1,-1,-1,-1,-1,-1,-1,-1,-1,-1],"loss_changes":[3.477343E2,5.4884796E1,1.7347748E1,6.2319275E1,1.7303474E1,1.6472015E0,9.167406E0,7.814406E0,3.3332397E1,7.477852E0,2.9670978E0,7.834711E-1,1.3118744E0,2.6848335E0,5.8374023E0,1.0450522E1,1.2647753E1,5.509477E0,1.7038605E1,6.6667455E-3,7.6004105E0,3.244271E0,4.959565E0,6.062608E-1,1.5980855E-2,7.972069E-1,2.366044E0,6.9142476E-2,1.5530577E0,2.0308533E0,4.615093E0,8.732496E0,1.3163548E0,8.759813E0,7.956915E-1,1.9174093E0,8.55364E0,1.5955627E1,1.0526062E1,0E0,0E0,0E0,8.510845E0,5.1462493E0,3.241714E0,0E0,2.0877501E-1,0E0,4.2359495E-1,0E0,1.2047749E-2,7.616615E-1,1.5643845E0,5.382254E-1,1.2281208E0,5.182773E-4,0E0,1.7002802E0,2.919488E-1,1.4058037E0,2.190771E0,2.884945E0,2.304737E0,0E0,0E0,0E0,0E0,0E0,0E0,0E0,0E0,0E0,0E0,0E0,0E0,0E0,0E0,0E0,0E0,0E0,0E0,0E0,0E0,0E0,0E0,0E0,0E0,0E0,0E0,0E0,0E0,0E0,0E0,0E0,0E0,0E0,0E0,0E0,0E0,0E0,0E0,0E0,0E0,0E0,0E0,0E0,0E0,0E0,0E0,0E0,0E0,0E0,0E0],"parents":[2147483647,0,0,1,1,2,2,3,3,4,4,5,5,6,6,7,7,8,8,9,9,10,10,11,11,12,12,13,13,14,14,15,15,16,16,17,17,18,18,19,19,20,20,21,21,22,22,23,23,24,24,25,25,26,26,27,27,28,28,29,29,30,30,31,31,32,32,33,33,34,34,35,35,36,36,37,37,38,38,42,42,43,43,44,44,46,46,48,48,50,50,51,51,52,52,53,53,54,54,55,55,57,57,58,58,59,59,60,60,61,61,62,62],"right_children":[2,4,6,8,10,12,14,16,18,20,22,24,26,28,30,32,34,36,38,40,42,44,46,48,50,52,54,56,58,60,62,64,66,68,70,72,74,76,78,-1,-1,-1,80,82,84,-1,86,-1,88,-1,90,92,94,96,98,100,-1,102,104,106,108,110,112,-1,-1,-1,-1,-1,-1,-1,-1,-1,-1,-1,-1,-1,-1,-1,-1,-1,-1,-1,-1,-1,-1,-1,-1,-1,-1,-1,-1,-1,-1,-1,-1,-1,-1,-1,-1,-1,-1,-1,-1,-1,-1,-1,-1,-1,-1,-1,-1,-1,-1],"split_conditions":[4.1592593E0,9.95E1,2.35263E1,1.9471E1,3.115E0,9E0,9E0,3E1,8E0,2.2753E1,2.11E2,4.54E0,1.51779E1,2.77141E1,1.8E1,1.032E1,3.54E1,3.473E1,3.5413043E0,1.0238E2,2.8E0,5.5E0,2.14E2,4.3206897E0,1E0,4.426087E0,1.8018E1,2.76685E1,1E0,4.702857E0,3.5E1,1.051E1,1.1E1,3.8646464E0,3.8407407E0,1.523E1,3E0,5E0,1.032E1,3.1247735E-3,-6.97422E-4,-4.469848E-3,3.72689E1,5.2E0,9E0,-1.0183612E-1,3.66308E1,-5.998814E-3,1.8E1,-9.694338E-4,6.988E0,4.2916665E0,1.3E1,4.303571E0,1.2915E2,2.6027E1,4.4967174E-3,7.8E0,4E0,3.46823E1,1.486E2,5E0,3.654E1,-3.9709296E-2,-1.2788062E-4,1.8318713E-2,4.9974825E-2,-2.9647857E-2,-3.342943E-3,1.6826795E-2,1.3936419E-3,-1.997272E-3,1.4795464E-2,-6.356088E-2,-4.1443505E-3,-5.1620852E-2,-1.0837893E-2,-3.3582926E-2,-2.2231707E-2,-1.460367E-1,7.0632696E-3,7.1204844E-4,-1.284746E-2,4.263622E-3,-2.1538654E-2,8.229813E-3,-1.2625909E-2,1.2615378E-2,3.3395626E-2,1.1761189E-4,6.373936E-3,1.46554625E-2,8.061464E-3,1.32971555E-2,8.515759E-3,-8.959281E-3,1.5642338E-3,8.65681E-3,2.7571335E-2,-1.9994378E-3,-7.3379516E-3,2.6717529E-2,5.7081427E-2,1.0093338E-2,2.7943356E-2,4.8267725E-3,8.555398E-3,1.1944201E-2,5.0367434E-2,5.654693E-3,-6.1098966E-3,2.6018303E-3,-1.0161794E-3],"split_indices":[6,2,0,0,6,2,2,2,5,0,5,6,0,0,5,2,2,2,6,2,6,7,5,6,4,6,0,0,4,6,2,0,9,6,6,2,9,4,2,0,0,0,0,7,4,0,0,0,5,0,0,6,4,6,2,0,0,2,4,0,2,10,0,0,0,0,0,0,0,0,0,0,0,0,0,0,0,0,0,0,0,0,0,0,0,0,0,0,0,0,0,0,0,0,0,0,0,0,0,0,0,0,0,0,0,0,0,0,0,0,0,0,0],"split_type":[0,0,0,0,0,0,0,0,0,0,0,0,0,0,0,0,0,0,0,0,0,0,0,0,0,0,0,0,0,0,0,0,0,0,0,0,0,0,0,0,0,0,0,0,0,0,0,0,0,0,0,0,0,0,0,0,0,0,0,0,0,0,0,0,0,0,0,0,0,0,0,0,0,0,0,0,0,0,0,0,0,0,0,0,0,0,0,0,0,0,0,0,0,0,0,0,0,0,0,0,0,0,0,0,0,0,0,0,0,0,0,0,0],"sum_hessian":[7.925E3,2.005E3,5.92E3,1.506E3,4.99E2,1.733E3,4.187E3,3.5E2,1.156E3,1E1,4.89E2,2.5E1,1.708E3,4.6E1,4.141E3,1.77E2,1.73E2,1.22E2,1.034E3,3E0,7E0,4.85E2,4E0,2E1,5E0,1.203E3,5.05E2,6E0,4E1,1.246E3,2.895E3,1.23E2,5.4E1,1.33E2,4E1,9.5E1,2.7E1,1.86E2,8.48E2,1E0,2E0,2E0,5E0,2.8E2,2.05E2,1E0,3E0,1E0,1.9E1,1E0,4E0,4.21E2,7.82E2,7.7E1,4.28E2,5E0,1E0,2.6E1,1.4E1,1.151E3,9.5E1,1.117E3,1.778E3,1.5E1,1.08E2,5.1E1,3E0,8.1E1,5.2E1,2.8E1,1.2E1,7.4E1,2.1E1,8E0,1.9E1,1.57E2,2.9E1,4.65E2,3.83E2,4E0,1E0,1.5E2,1.3E2,1.93E2,1.2E1,2E0,1E0,5E0,1.4E1,1E0,3E0,5.1E1,3.7E2,5.13E2,2.69E2,1.4E1,6.3E1,4.2E2,8E0,1E0,4E0,1.8E1,8E0,1.1E1,3E0,7.7E2,3.81E2,9.2E1,3E0,1.063E3,5.4E1,9.81E2,7.97E2],"tree_param":{"num_deleted":"0","num_feature":"11","num_nodes":"113","size_leaf_vector":"1"}},{"base_weights":[6.538369E-4,-3.2531607E-1,1.0980777E-1,-3.9620826E-1,-1.0789549E-1,1.4326394E-1,5.557844E-2,-4.3096778E-1,3.9313375E-3,-1.1234587E0,-8.206639E-2,4.7105157E-1,1.3624962E-1,1.2706415E-1,2.4444481E-2,-4.6740106E-1,-1.6928865E-1,-1.3905725E0,6.400537E-2,-1.7692615E0,-4.0941945E-1,-7.365056E-2,-1.3844105E0,3.7738162E-1,6.270681E-1,-2.506824E-1,1.4147983E-1,1.1668479E-1,2.7883413E-1,7.436826E-2,2.256412E-2,-5.078627E-1,-1.7804569E-1,4.7364727E-1,-2.6371637E-1,-1.3682501E-1,-1.090398E-1,1.4922366E-1,-4.4104365E-1,-2.1183105E0,-6.0042145E-4,-1.1928775E0,1.4253931E-1,-6.5024845E-2,-8.6973834E-1,-9.860089E-2,-5.2299025E-3,4.139923E-1,-3.541354E-2,1.2725397E0,4.225273E-1,-9.624997E-2,-1.7410123E-1,1.3138881E-1,2.5617558E-1,2.529934E-1,1.0422122E-1,2.0103717E-1,7.2507596E-1,2.4813268E-2,-2.121018E-1,-3.326116E-2,-1.9453265E-2,-1.3103996E-3,-1.5612683E-2,3.5507385E-2,1.0869232E-2,-9.242654E-2,-1.0908931E-2,-9.108859E-3,-1.1530161E-3,2.3054532E-3,1.0082233E-2,3.4243618E-3,-5.8936443E-2,-3.3557059E-3,-1.3071655E-1,-4.1083098E-4,-8.905499E-2,1.4602351E-2,-2.7240755E-3,-4.6963464E-3,6.8950974E-3,-9.9290214E-2,-4.7135386E-3,2.3333976E-2,8.092205E-3,1.6419554E-2,6.978456E-2,2.9468343E-2,5.802584E-3,-4.24668E-2,4.0868708E-4,1.3600759E-2,6.1759106E-3,1.5299189E-2,6.1526624E-3,-7.521057E-4,1.5408034E-2,3.4814947E-3,6.6640438E-3,1.861147E-2,2.9807102E-3,5.9627153E-2,9.660333E-3,8.730276E-3,1.1075959E-3,-9.0256485E-4,-1.898198E-2],"categories":[],"categories_nodes":[],"categories_segments":[],"categories_sizes":[],"default_left":[0,0,0,0,0,0,0,0,0,0,0,0,0,0,0,0,0,0,0,0,0,0,0,0,0,0,0,0,0,0,0,0,0,0,0,0,0,0,0,0,0,0,0,0,0,0,0,0,0,0,0,0,0,0,0,0,0,0,0,0,0,0,0,0,0,0,0,0,0,0,0,0,0,0,0,0,0,0,0,0,0,0,0,0,0,0,0,0,0,0,0,0,0,0,0,0,0,0,0,0,0,0,0,0,0,0,0,0,0],"id":9,"left_children":[1,3,5,7,9,11,13,15,17,19,21,23,25,27,29,31,33,35,37,39,41,43,45,47,49,51,53,55,57,-1,59,61,63,65,67,69,-1,71,73,75,-1,77,79,81,83,-1,-1,85,-1,87,89,-1,91,93,95,97,99,101,103,105,107,-1,-1,-1,-1,-1,-1,-1,-1,-1,-1,-1,-1,-1,-1,-1,-1,-1,-1,-1,-1,-1,-1,-1,-1,-1,-1,-1,-1,-1,-1,-1,-1,-1,-1,-1,-1,-1,-1,-1,-1,-1,-1,-1,-1,-1,-1,-1,-1],"loss_changes":[2.8012854E2,3.0398743E1,1.069281E1,2.0711716E1,1.2682343E1,8.321022E0,5.0090213E0,1.29822235E1,1.014182E1,4.8091726E0,5.115137E0,8.7402344E-1,7.2642517E0,1.0433769E0,4.285225E0,1.398233E1,1.0385062E1,4.6553154E0,5.058386E0,3.654766E0,3.1970878E0,3.198324E0,2.0498123E0,2.2805424E0,3.0269995E0,5.8194723E0,4.0461655E0,1.0626221E0,1.3470323E0,0E0,8.333786E-1,1.9444672E1,3.0281138E0,1.1789618E0,1.0277686E1,1.1277359E-2,0E0,5.312393E-1,6.4705763E0,4.9117184E0,0E0,2.0758967E0,1.6319183E-1,2.7695053E0,4.1401615E0,0E0,0E0,5.7543564E-1,0E0,2.393074E-1,1.0565128E0,0E0,5.7916265E0,3.5546951E0,1.8454361E0,7.883358E-1,5.827894E-1,8.978094E-1,1.2613809E0,6.160321E-1,4.8080885E-1,0E0,0E0,0E0,0E0,0E0,0E0,0E0,0E0,0E0,0E0,0E0,0E0,0E0,0E0,0E0,0E0,0E0,0E0,0E0,0E0,0E0,0E0,0E0,0E0,0E0,0E0,0E0,0E0,0E0,0E0,0E0,0E0,0E0,0E0,0E0,0E0,0E0,0E0,0E0,0E0,0E0,0E0,0E0,0E0,0E0,0E0,0E0,0E0],"parents":[2147483647,0,0,1,1,2,2,3,3,4,4,5,5,6,6,7,7,8,8,9,9,10,10,11,11,12,12,13,13,14,14,15,15,16,16,17,17,18,18,19,19,20,20,21,21,22,22,23,23,24,24,25,25,26,26,27,27,28,28,30,30,31,31,32,32,33,33,34,34,35,35,37,37,38,38,39,39,41,41,42,42,43,43,44,44,47,47,49,49,50,50,52,52,53,53,54,54,55,55,56,56,57,57,58,58,59,59,60,60],"right_children":[2,4,6,8,10,12,14,16,18,20,22,24,26,28,30,32,34,36,38,40,42,44,46,48,50,52,54,56,58,-1,60,62,64,66,68,70,-1,72,74,76,-1,78,80,82,84,-1,-1,86,-1,88,90,-1,92,94,96,98,100,102,104,106,108,-1,-1,-1,-1,-1,-1,-1,-1,-1,-1,-1,-1,-1,-1,-1,-1,-1,-1,-1,-1,-1,-1,-1,-1,-1,-1,-1,-1,-1,-1,-1,-1,-1,-1,-1,-1,-1,-1,-1,-1,-1,-1,-1,-1,-1,-1,-1,-1],"split_conditions":[4.1592593E0,9.95E1,5.92E1,7.734487E0,3.115E0,9E0,1.9E1,4.7E0,3.5E0,2.6E0,5.1744986E0,8.226544E-1,3.8E0,4.694805E0,4.21875E-4,3E1,4.4737267E-3,3.277E1,1.2E1,2.1431E2,2E0,2.11E2,1.231E2,8.0544305E-1,1.2707622E0,5E0,4.65E0,7E0,1.4528E2,7.436826E-2,1.25E2,1.032E1,2.8667476E-2,7E0,5.6420253E-3,1.2E1,-1.090398E-1,4E0,4.5E0,2.6E1,-6.0042145E-4,1.097E2,3.8E0,1.31E2,1.656E2,-9.860089E-2,-5.2299025E-3,6.9E1,-3.541354E-2,4.3E0,3E0,-9.624997E-2,4.2E0,3.3684028E-3,3.36E1,7.004E1,4.415E0,1.351937E0,1.1E1,4.212727E0,4.431579E0,-3.326116E-2,-1.9453265E-2,-1.3103996E-3,-1.5612683E-2,3.5507385E-2,1.0869232E-2,-9.242654E-2,-1.0908931E-2,-9.108859E-3,-1.1530161E-3,2.3054532E-3,1.0082233E-2,3.4243618E-3,-5.8936443E-2,-3.3557059E-3,-1.3071655E-1,-4.1083098E-4,-8.905499E-2,1.4602351E-2,-2.7240755E-3,-4.6963464E-3,6.8950974E-3,-9.9290214E-2,-4.7135386E-3,2.3333976E-2,8.092205E-3,1.6419554E-2,6.978456E-2,2.9468343E-2,5.802584E-3,-4.24668E-2,4.0868708E-4,1.3600759E-2,6.1759106E-3,1.5299189E-2,6.1526624E-3,-7.521057E-4,1.5408034E-2,3.4814947E-3,6.6640438E-3,1.861147E-2,2.9807102E-3,5.9627153E-2,9.660333E-3,8.730276E-3,1.1075959E-3,-9.0256485E-4,-1.898198E-2],"split_indices":[6,2,2,8,6,2,5,3,3,3,8,8,3,6,8,4,8,2,9,2,9,5,2,8,8,5,6,5,2,0,5,2,8,4,8,2,0,10,3,5,0,2,3,5,2,0,0,5,0,3,10,0,6,8,2,2,6,8,5,6,6,0,0,0,0,0,0,0,0,0,0,0,0,0,0,0,0,0,0,0,0,0,0,0,0,0,0,0,0,0,0,0,0,0,0,0,0,0,0,0,0,0,0,0,0,0,0,0,0],"split_type":[0,0,0,0,0,0,0,0,0,0,0,0,0,0,0,0,0,0,0,0,0,0,0,0,0,0,0,0,0,0,0,0,0,0,0,0,0,0,0,0,0,0,0,0,0,0,0,0,0,0,0,0,0,0,0,0,0,0,0,0,0,0,0,0,0,0,0,0,0,0,0,0,0,0,0,0,0,0,0,0,0,0,0,0,0,0,0,0,0,0,0,0,0,0,0,0,0,0,0,0,0,0,0,0,0,0,0,0,0],"sum_hessian":[7.871E3,1.974E3,5.897E3,1.488E3,4.86E2,3.646E3,2.251E3,1.369E3,1.19E2,1.1E1,4.75E2,7.5E1,3.571E3,6.82E2,1.569E3,1.201E3,1.68E2,4E0,1.15E2,5E0,6E0,4.73E2,2E0,4.9E1,2.6E1,4.7E1,3.524E3,6.4E2,4.2E1,1E0,1.568E3,1.053E3,1.48E2,2.1E1,1.47E2,2E0,2E0,9.9E1,1.6E1,4E0,1E0,2E0,4E0,4.69E2,4E0,1E0,1E0,4.8E1,1E0,5E0,2.1E1,1E0,4.6E1,3.241E3,2.83E2,5.2E1,5.88E2,3.7E1,5E0,1.554E3,1.4E1,4.51E2,6.02E2,7E1,7.8E1,1E1,1.1E1,3E0,1.44E2,1E0,1E0,3.4E1,6.5E1,1E1,6E0,1E0,3E0,1E0,1E0,2E0,2E0,4.11E2,5.8E1,1E0,3E0,3.9E1,9E0,1E0,4E0,1.3E1,8E0,9E0,3.7E1,1.7E2,3.071E3,2.05E2,7.8E1,9E0,4.3E1,2.7E2,3.18E2,1.6E1,2.1E1,2E0,3E0,2.6E1,1.528E3,7E0,7E0],"tree_param":{"num_deleted":"0","num_feature":"11","num_nodes":"109","size_leaf_vector":"1"}},{"base_weights":[-2.5225438E-3,-3.2435066E-1,1.0107712E-1,-3.9057726E-1,-1.19189754E-1,1.874084E-1,6.557118E-2,-8.585072E-2,-4.8044658E-1,-1.072833E0,-9.394323E-2,5.264395E-1,1.8294483E-1,3.6357755E-3,8.973194E-2,1.999643E-3,-3.0092195E-1,-6.999362E-2,-5.2881E-1,1.7308164E-1,-1.507369E0,-1.3441138E0,-8.551241E-2,6.745214E-1,2.3759651E-1,3.7740815E-1,1.7842661E-1,2.6192654E-2,-2.1704456E-1,3.3917114E-1,8.381472E-2,-1.756485E-1,1.3620786E-1,2.2968876E-1,-4.5255545E-1,6.0762305E-2,-6.4927036E-1,-2.2334027E0,-5.145446E-1,3.541835E-2,1.46517875E-2,-4.2195204E-3,-1.9018787E0,-9.999213E-2,-8.164048E-4,-7.4888915E-2,-8.697927E-1,8.5942745E-2,7.6545596E-1,1.3457918E-1,2.6543379E-2,1.9499563E-1,4.5409873E-1,1.6786717E-1,2.6978442E-1,1.885067E-1,1.8430416E-2,-3.7612593E-1,1.4961162E-1,1.1374857E0,2.7355382E-1,1.05526306E-1,1.836131E-2,3.9023024E-3,-4.4162307E-2,-6.365617E-2,8.348659E-3,-5.731316E-3,1.5628567E-2,-1.6072417E-2,-8.4012315E-2,-3.4294394E-3,9.065654E-3,-8.9753757E-4,-5.8693707E-2,2.8378999E-2,-1.357313E-1,-3.999373E-2,-2.3299692E-2,3.0569315E-3,-4.0055515E-4,-1.131168E-1,6.5216306E-3,1.211758E-3,-8.305091E-3,-1.3464376E-2,-9.6807964E-2,1.2453437E-3,5.2003623E-3,6.5096617E-3,4.056857E-2,-2.5723062E-3,1.0258099E-2,1.3956919E-2,-3.205508E-3,2.5198876E-3,2.5228208E-2,8.582003E-3,-4.135083E-3,6.6824527E-3,1.6893696E-2,3.6878355E-2,6.1655473E-3,-1.4900493E-2,1.250232E-3,6.7849684E-4,-3.343531E-2,9.418677E-3,-1.5685957E-2,1.5159654E-2,6.351303E-2,1.5116445E-2,-6.898384E-3,1.8454654E-2,5.057476E-3,6.9015324E-3,-2.2815749E-4],"categories":[],"categories_nodes":[],"categories_segments":[],"categories_sizes":[],"default_left":[0,0,0,0,0,0,0,0,0,0,0,0,0,0,0,0,0,0,0,0,0,0,0,0,0,0,0,0,0,0,0,0,0,0,0,0,0,0,0,0,0,0,0,0,0,0,0,0,0,0,0,0,0,0,0,0,0,0,0,0,0,0,0,0,0,0,0,0,0,0,0,0,0,0,0,0,0,0,0,0,0,0,0,0,0,0,0,0,0,0,0,0,0,0,0,0,0,0,0,0,0,0,0,0,0,0,0,0,0,0,0,0,0,0,0,0,0],"id":10,"left_children":[1,3,5,7,9,11,13,15,17,19,21,23,25,27,29,31,33,35,37,39,41,43,45,47,49,51,53,55,57,59,61,63,65,67,69,71,73,75,77,79,-1,-1,81,-1,-1,83,85,87,89,91,-1,93,95,97,99,101,103,105,107,109,111,113,115,-1,-1,-1,-1,-1,-1,-1,-1,-1,-1,-1,-1,-1,-1,-1,-1,-1,-1,-1,-1,-1,-1,-1,-1,-1,-1,-1,-1,-1,-1,-1,-1,-1,-1,-1,-1,-1,-1,-1,-1,-1,-1,-1,-1,-1,-1,-1,-1,-1,-1,-1,-1,-1,-1],"loss_changes":[2.6232867E2,2.5986359E1,1.8232212E1,3.961302E1,1.1190941E1,2.5277328E0,6.313013E0,6.2545443E0,2.2156372E1,6.757638E0,4.7123666E0,7.807298E-1,1.4377518E0,5.9044485E0,4.451193E0,5.650599E0,7.8279505E0,9.052972E0,2.3167511E1,5.5674255E-2,4.8919067E0,2.5793486E0,3.73416E0,6.835246E-1,2.0046431E-1,4.4304657E-1,1.5715256E0,1.3521997E0,6.4723706E0,3.3556652E0,4.2130375E0,1.8379326E1,6.065976E0,6.6365886E-1,1.1531813E1,1.5405868E0,7.2651653E0,1.2323952E1,1.338327E1,3.8408407E-3,0E0,0E0,5.4230137E0,0E0,0E0,4.0816956E0,3.3207679E0,7.172525E-4,2.4438524E-1,1.15596265E-1,0E0,3.0131996E-1,5.0426817E-1,1.4369812E0,1.5491781E0,1.6630733E0,2.1460502E0,8.788407E0,6.697219E-1,1.6873074E-1,8.232541E-1,2.531681E0,2.0307124E0,0E0,0E0,0E0,0E0,0E0,0E0,0E0,0E0,0E0,0E0,0E0,0E0,0E0,0E0,0E0,0E0,0E0,0E0,0E0,0E0,0E0,0E0,0E0,0E0,0E0,0E0,0E0,0E0,0E0,0E0,0E0,0E0,0E0,0E0,0E0,0E0,0E0,0E0,0E0,0E0,0E0,0E0,0E0,0E0,0E0,0E0,0E0,0E0,0E0,0E0,0E0,0E0,0E0,0E0],"parents":[2147483647,0,0,1,1,2,2,3,3,4,4,5,5,6,6,7,7,8,8,9,9,10,10,11,11,12,12,13,13,14,14,15,15,16,16,17,17,18,18,19,19,20,20,21,21,22,22,23,23,24,24,25,25,26,26,27,27,28,28,29,29,30,30,31,31,32,32,33,33,34,34,35,35,36,36,37,37,38,38,39,39,42,42,45,45,46,46,47,47,48,48,49,49,51,51,52,52,53,53,54,54,55,55,56,56,57,57,58,58,59,59,60,60,61,61,62,62],"right_children":[2,4,6,8,10,12,14,16,18,20,22,24,26,28,30,32,34,36,38,40,42,44,46,48,50,52,54,56,58,60,62,64,66,68,70,72,74,76,78,80,-1,-1,82,-1,-1,84,86,88,90,92,-1,94,96,98,100,102,104,106,108,110,112,114,116,-1,-1,-1,-1,-1,-1,-1,-1,-1,-1,-1,-1,-1,-1,-1,-1,-1,-1,-1,-1,-1,-1,-1,-1,-1,-1,-1,-1,-1,-1,-1,-1,-1,-1,-1,-1,-1,-1,-1,-1,-1,-1,-1,-1,-1,-1,-1,-1,-1,-1,-1,-1,-1,-1],"split_conditions":[4.109091E0,9.95E1,2.35263E1,1.9471E1,3.115E0,9E0,4.353846E0,9.38056E-1,6E0,2.311E1,2.124537E-3,4.520513E0,1.025463E-3,4.4E1,2.124537E-3,4.5837615E-2,1.4E1,3.36E1,2.0206E1,2.2753E1,2.8E0,3.6998E1,2.06E2,1.2E1,4.615556E0,7.53E0,4.64E0,2E0,1.12E2,4.3766665E0,1.20222E2,2.4034074E-2,9.99E0,9.3592E0,1.2E1,2.8997E1,1E0,3.277E1,3.4642856E0,1.21851E1,1.46517875E-2,-4.2195204E-3,3.72689E1,-9.999213E-2,-8.164048E-4,3.7761905E0,3.7069767E0,8.922E0,6.988E0,1E0,2.6543379E-2,3.1E1,2E0,9E1,1.1E1,4.009692E-2,4.1592593E0,3.4261E1,1.9638813E0,3E0,1.61E2,9E0,1.9E1,3.9023024E-3,-4.4162307E-2,-6.365617E-2,8.348659E-3,-5.731316E-3,1.5628567E-2,-1.6072417E-2,-8.4012315E-2,-3.4294394E-3,9.065654E-3,-8.9753757E-4,-5.8693707E-2,2.8378999E-2,-1.357313E-1,-3.999373E-2,-2.3299692E-2,3.0569315E-3,-4.0055515E-4,-1.131168E-1,6.5216306E-3,1.211758E-3,-8.305091E-3,-1.3464376E-2,-9.6807964E-2,1.2453437E-3,5.2003623E-3,6.5096617E-3,4.056857E-2,-2.5723062E-3,1.0258099E-2,1.3956919E-2,-3.205508E-3,2.5198876E-3,2.5228208E-2,8.582003E-3,-4.135083E-3,6.6824527E-3,1.6893696E-2,3.6878355E-2,6.1655473E-3,-1.4900493E-2,1.250232E-3,6.7849684E-4,-3.343531E-2,9.418677E-3,-1.5685957E-2,1.5159654E-2,6.351303E-2,1.5116445E-2,-6.898384E-3,1.8454654E-2,5.057476E-3,6.9015324E-3,-2.2815749E-4],"split_indices":[6,2,0,0,6,2,6,8,5,0,8,6,8,5,8,8,5,2,0,0,6,0,5,5,6,0,6,9,2,6,2,8,2,0,9,0,5,2,6,0,0,0,0,0,0,6,6,0,0,4,0,4,4,4,5,8,6,0,8,4,5,2,5,0,0,0,0,0,0,0,0,0,0,0,0,0,0,0,0,0,0,0,0,0,0,0,0,0,0,0,0,0,0,0,0,0,0,0,0,0,0,0,0,0,0,0,0,0,0,0,0,0,0,0,0,0,0],"split_type":[0,0,0,0,0,0,0,0,0,0,0,0,0,0,0,0,0,0,0,0,0,0,0,0,0,0,0,0,0,0,0,0,0,0,0,0,0,0,0,0,0,0,0,0,0,0,0,0,0,0,0,0,0,0,0,0,0,0,0,0,0,0,0,0,0,0,0,0,0,0,0,0,0,0,0,0,0,0,0,0,0,0,0,0,0,0,0,0,0,0,0,0,0,0,0,0,0,0,0,0,0,0,0,0,0,0,0,0,0,0,0,0,0,0,0,0,0],"sum_hessian":[7.866E3,1.915E3,5.951E3,1.447E3,4.68E2,1.733E3,4.218E3,3.3E2,1.117E3,1.1E1,4.57E2,2.1E1,1.712E3,1.184E3,3.034E3,2.35E2,9.5E1,1.18E2,9.99E2,3E0,8E0,2E0,4.55E2,1.3E1,8E0,3.7E1,1.675E3,1.075E3,1.09E2,6.9E1,2.965E3,1.01E2,1.34E2,2.1E1,7.4E1,9.7E1,2.1E1,7E0,9.92E2,2E0,1E0,2E0,6E0,1E0,1E0,4.5E2,5E0,2E0,1.1E1,7E0,1E0,1.2E1,2.5E1,1.504E3,1.71E2,4.8E1,1.027E3,7.6E1,3.3E1,4E0,6.5E1,2.226E3,7.39E2,7.5E1,2.6E1,2E0,1.32E2,4E0,1.7E1,6.8E1,6E0,4.7E1,5E1,1E1,1.1E1,1E0,6E0,1.42E2,8.5E2,1E0,1E0,5E0,1E0,2.16E2,2.34E2,4E0,1E0,1E0,1E0,1E0,1E1,2E0,5E0,9E0,3E0,3E0,2.2E1,1.482E3,2.2E1,5.8E1,1.13E2,4E0,4.4E1,2E1,1.007E3,3.3E1,4.3E1,3.1E1,2E0,1E0,3E0,6.1E1,4E0,3.5E1,2.191E3,1.18E2,6.21E2],"tree_param":{"num_deleted":"0","num_feature":"11","num_nodes":"117","size_leaf_vector":"1"}},{"base_weights":[-1.6308479E-3,-2.9585567E-1,3.664013E-2,-5.235056E-1,-1.4850195E-1,7.585274E-2,-7.8932405E-2,-3.7348154E-1,-7.910807E-1,3.873793E-1,-2.2459142E-1,1.2053949E-2,1.2679945E-1,8.474808E-2,-1.9695413E-1,-6.907293E-1,-2.8601658E-1,-9.9532205E-1,-2.0314653E-1,4.8074016E-1,-1.37340855E-2,-1.9262246E0,-1.9920224E-1,3.155407E-2,-6.9646224E-2,4.5526558E-1,1.21921256E-1,9.0008855E-2,-9.5205724E-2,-3.1105503E-1,-3.845021E-2,-4.083328E-2,-9.762472E-1,5.4813303E-2,-3.82411E-1,-1.1895574E0,-4.5576137E-2,8.988956E-3,-1.1946104E0,2.2906402E-1,6.141973E-1,-9.955887E-2,2.915444E-1,-2.2531712E0,8.863807E-4,-1.923945E0,-1.8425873E-1,1.18586645E-1,1.9321581E-2,1.2805229E-2,-4.2512518E-1,6.766111E-1,5.3290844E-2,1.9191806E-1,9.90417E-2,8.657311E-3,1.5197037E-1,-7.564751E-1,-2.1113305E-1,6.9625443E-3,-1.694326E-1,-6.3306734E-2,1.12323975E-2,-6.0771324E-2,-8.8406475E-3,1.0733931E-2,-3.7617188E-2,5.1243923E-4,-2.3118045E-2,5.972309E-3,-7.031256E-2,1.0156896E-2,-2.6770411E-2,2.0407084E-2,-1.2880611E-2,8.256662E-3,-9.578827E-2,1.9598419E-2,2.266782E-3,3.6033753E-2,1.533433E-2,3.5929189E-3,3.143352E-2,-1.3118266E-1,-1.0019046E-2,-6.6183804E-4,-1.2782177E-1,-1.9732634E-2,-4.5767757E-3,3.441269E-3,7.5931908E-3,-7.626471E-4,2.0378914E-3,3.7387663E-3,-4.0980116E-3,-2.326811E-3,-4.013031E-2,4.646482E-2,1.8779827E-2,-1.6479557E-2,6.5765246E-3,7.675291E-3,1.2346352E-2,4.807343E-3,4.3160196E-2,1.1112712E-3,-4.2664617E-2,8.904401E-3,-8.51357E-3,-6.582608E-2,-2.7331272E-2,9.912083E-5,-1.8120363E-2,-9.737207E-3,1.9852822E-3,-3.3416703E-2,-2.2798155E-3],"categories":[],"categories_nodes":[],"categories_segments":[],"categories_sizes":[],"default_left":[0,0,0,0,0,0,0,0,0,0,0,0,0,0,0,0,0,0,0,0,0,0,0,0,0,0,0,0,0,0,0,0,0,0,0,0,0,0,0,0,0,0,0,0,0,0,0,0,0,0,0,0,0,0,0,0,0,0,0,0,0,0,0,0,0,0,0,0,0,0,0,0,0,0,0,0,0,0,0,0,0,0,0,0,0,0,0,0,0,0,0,0,0,0,0,0,0,0,0,0,0,0,0,0,0,0,0,0,0,0,0,0,0,0,0,0,0],"id":11,"left_children":[1,3,5,7,9,11,13,15,17,19,21,23,25,27,29,31,33,35,37,39,41,43,45,47,49,51,53,55,-1,57,59,61,63,65,67,69,71,73,75,77,79,-1,81,83,-1,85,87,89,91,93,95,97,99,101,103,105,107,109,111,113,115,-1,-1,-1,-1,-1,-1,-1,-1,-1,-1,-1,-1,-1,-1,-1,-1,-1,-1,-1,-1,-1,-1,-1,-1,-1,-1,-1,-1,-1,-1,-1,-1,-1,-1,-1,-1,-1,-1,-1,-1,-1,-1,-1,-1,-1,-1,-1,-1,-1,-1,-1,-1,-1,-1,-1,-1],"loss_changes":[8.8730515E1,3.0347641E1,3.1606926E1,1.3995354E1,2.2594757E1,1.6922989E1,3.4151337E1,6.184498E0,1.5048019E1,2.5905352E0,2.0526573E1,3.687184E0,4.5832176E0,7.9244466E0,1.8561787E1,9.052427E0,6.000408E0,1.7286362E1,7.1617765E0,1.7402372E0,9.031909E0,4.488926E0,1.1965338E1,1.9864281E0,1.3077597E1,3.7009058E0,4.5516586E0,3.7287774E0,0E0,2.641111E1,2.5648844E0,5.4891467E0,6.286171E0,5.452005E0,4.4625587E0,2.22929E1,2.1798396E0,3.1911654E0,6.199873E0,6.107632E-1,9.577284E-1,0E0,9.17629E-1,4.0373974E0,0E0,4.8001804E0,9.230366E0,3.7040806E-1,1.2153631E0,2.137891E0,1.1967098E1,1.7046328E0,5.226561E-1,1.4454346E0,4.6797276E0,3.773069E0,3.5651255E0,1.2090645E1,1.576553E1,2.127777E0,6.82734E0,0E0,0E0,0E0,0E0,0E0,0E0,0E0,0E0,0E0,0E0,0E0,0E0,0E0,0E0,0E0,0E0,0E0,0E0,0E0,0E0,0E0,0E0,0E0,0E0,0E0,0E0,0E0,0E0,0E0,0E0,0E0,0E0,0E0,0E0,0E0,0E0,0E0,0E0,0E0,0E0,0E0,0E0,0E0,0E0,0E0,0E0,0E0,0E0,0E0,0E0,0E0,0E0,0E0,0E0,0E0,0E0],"parents":[2147483647,0,0,1,1,2,2,3,3,4,4,5,5,6,6,7,7,8,8,9,9,10,10,11,11,12,12,13,13,14,14,15,15,16,16,17,17,18,18,19,19,20,20,21,21,22,22,23,23,24,24,25,25,26,26,27,27,29,29,30,30,31,31,32,32,33,33,34,34,35,35,36,36,37,37,38,38,39,39,40,40,42,42,43,43,45,45,46,46,47,47,48,48,49,49,50,50,51,51,52,52,53,53,54,54,55,55,56,56,57,57,58,58,59,59,60,60],"right_children":[2,4,6,8,10,12,14,16,18,20,22,24,26,28,30,32,34,36,38,40,42,44,46,48,50,52,54,56,-1,58,60,62,64,66,68,70,72,74,76,78,80,-1,82,84,-1,86,88,90,92,94,96,98,100,102,104,106,108,110,112,114,116,-1,-1,-1,-1,-1,-1,-1,-1,-1,-1,-1,-1,-1,-1,-1,-1,-1,-1,-1,-1,-1,-1,-1,-1,-1,-1,-1,-1,-1,-1,-1,-1,-1,-1,-1,-1,-1,-1,-1,-1,-1,-1,-1,-1,-1,-1,-1,-1,-1,-1,-1,-1,-1,-1,-1,-1],"split_conditions":[4E0,1.032E1,3.9E1,8E0,2.941E1,7.93974E1,2.92397E1,8.10515E1,1.3E2,1.37E2,5E0,3E0,9E0,2.16E2,9.702E1,7.09073E1,3.4E0,9.08861E1,3.0881E1,5E0,1.38E2,3.6E0,7.174E0,1.8E1,1.8E1,3E0,1.25345E1,9.26686E1,-9.5205724E-2,5.4E0,3.6725E1,6.87058E1,6E0,1.75E2,8.1476E1,4.7E0,9.24291E1,1.47E2,8.1306E1,2.04E1,2.52E1,-9.955887E-2,3.8E0,3.0635E1,8.863807E-4,6.7292E0,3.4E0,4E0,6E0,1.2E1,3.277E1,2.6E1,4.5E0,5.4E0,6.9E0,9.2116E1,1.9471E1,5E0,7.7E1,3.62347E1,3.6998E1,-6.3306734E-2,1.12323975E-2,-6.0771324E-2,-8.8406475E-3,1.0733931E-2,-3.7617188E-2,5.1243923E-4,-2.3118045E-2,5.972309E-3,-7.031256E-2,1.0156896E-2,-2.6770411E-2,2.0407084E-2,-1.2880611E-2,8.256662E-3,-9.578827E-2,1.9598419E-2,2.266782E-3,3.6033753E-2,1.533433E-2,3.5929189E-3,3.143352E-2,-1.3118266E-1,-1.0019046E-2,-6.6183804E-4,-1.2782177E-1,-1.9732634E-2,-4.5767757E-3,3.441269E-3,7.5931908E-3,-7.626471E-4,2.0378914E-3,3.7387663E-3,-4.0980116E-3,-2.326811E-3,-4.013031E-2,4.646482E-2,1.8779827E-2,-1.6479557E-2,6.5765246E-3,7.675291E-3,1.2346352E-2,4.807343E-3,4.3160196E-2,1.1112712E-3,-4.2664617E-2,8.904401E-3,-8.51357E-3,-6.582608E-2,-2.7331272E-2,9.912083E-5,-1.8120363E-2,-9.737207E-3,1.9852822E-3,-3.3416703E-2,-2.2798155E-3],"split_indices":[3,2,5,9,2,1,0,1,5,5,5,10,2,5,2,1,3,1,0,9,5,3,0,5,5,10,0,1,0,7,0,1,9,5,1,7,1,5,1,2,2,0,3,0,0,0,3,9,9,5,2,5,7,7,3,1,0,9,5,0,0,0,0,0,0,0,0,0,0,0,0,0,0,0,0,0,0,0,0,0,0,0,0,0,0,0,0,0,0,0,0,0,0,0,0,0,0,0,0,0,0,0,0,0,0,0,0,0,0,0,0,0,0,0,0,0,0],"split_type":[0,0,0,0,0,0,0,0,0,0,0,0,0,0,0,0,0,0,0,0,0,0,0,0,0,0,0,0,0,0,0,0,0,0,0,0,0,0,0,0,0,0,0,0,0,0,0,0,0,0,0,0,0,0,0,0,0,0,0,0,0,0,0,0,0,0,0,0,0,0,0,0,0,0,0,0,0,0,0,0,0,0,0,0,0,0,0,0,0,0,0,0,0,0,0,0,0,0,0,0,0,0,0,0,0,0,0,0,0,0,0,0,0,0,0,0,0],"sum_hessian":[7.878E3,9.06E2,6.972E3,3.55E2,5.51E2,5.206E3,1.766E3,2.29E2,1.26E2,6.8E1,4.83E2,2.312E3,2.894E3,7.4E2,1.026E3,4.8E1,1.81E2,9.3E1,3.3E1,5.5E1,1.3E1,6E0,4.77E2,1.867E3,4.45E2,4.1E1,2.853E3,7.39E2,1E0,5.96E2,4.3E2,1.5E1,3.3E1,4E1,1.41E2,7.7E1,1.6E1,2.8E1,5E0,2E1,3.5E1,1E0,1.2E1,5E0,1E0,3E0,4.74E2,2.29E2,1.638E3,3.62E2,8.3E1,2.6E1,1.5E1,7.01E2,2.152E3,3.2E2,4.19E2,1.08E2,4.88E2,3.2E2,1.1E2,2E0,1.3E1,2.5E1,8E0,3.4E1,6E0,2.4E1,1.17E2,1.1E1,6.6E1,1.1E1,5E0,1.1E1,1.7E1,2E0,3E0,1E1,1E1,2.5E1,1E1,8E0,4E0,4E0,1E0,1E0,2E0,1.44E2,3.3E2,9.3E1,1.36E2,6.27E2,1.011E3,2.19E2,1.43E2,4.2E1,4.1E1,1.3E1,1.3E1,2E0,1.3E1,4.15E2,2.86E2,2.145E3,7E0,3.16E2,4E0,3.88E2,3.1E1,2.8E1,8E1,2.03E2,2.85E2,4.4E1,2.76E2,2.1E1,8.9E1],"tree_param":{"num_deleted":"0","num_feature":"11","num_nodes":"117","size_leaf_vector":"1"}},{"base_weights":[-5.800649E-3,-3.03904E-1,9.665754E-2,-3.7892735E-1,-7.0304275E-2,1.652275E-1,6.816787E-2,-8.092505E-2,-4.6848714E-1,-8.1097656E-1,-5.32904E-2,1.5424524E-1,2.6825806E-1,1.1207426E-1,3.826059E-2,1.3414936E-1,-1.7803662E-1,-5.137905E-1,3.8618606E-3,1.8413E-1,-1.4059132E0,-4.511926E-2,-1.3456329E0,3.6025572E-1,1.4929065E-1,3.1225014E-1,-3.1883672E-2,8.733114E-2,1.9239385E-1,1.126119E0,3.6925975E-2,-2.558198E-1,1.6692191E-1,-6.340444E-2,-6.23834E-1,3.8834596E-1,-5.295356E-1,9.249965E-2,-5.7255965E-1,2.8577805E-2,1.3915277E-2,-3.081151E-3,-9.656524E-2,-8.4136076E-2,7.562006E-2,-9.628634E-2,-4.6361326E-3,5.1677287E-1,4.3588933E-2,1.0101539E-1,1.6714069E-1,2.7820033E-1,5.865317E-1,-1.034709E-1,1.0632783E-1,3.3831975E-1,7.819645E-2,1.3192669E-1,2.8655702E-1,1.3588644E-2,7.087028E-2,4.902582E-3,7.985146E-2,1.3512029E-2,-6.990104E-2,1.3152557E-2,1.8588206E-3,-9.223964E-2,-2.2404322E-3,-6.1087072E-2,9.633636E-3,7.4289003E-3,6.251656E-2,-9.52509E-2,-2.599307E-2,-3.4481182E-3,1.1615153E-2,-1.672538E-2,-9.168091E-2,-6.452918E-4,2.7886273E-3,1.5397372E-3,-7.110183E-3,-5.738831E-3,7.091615E-3,-8.222803E-3,2.9308904E-2,-3.8202605E-4,1.645856E-2,1.45954685E-2,4.3753E-3,9.519121E-3,6.64035E-3,1.5632253E-2,-1.4765195E-3,3.972187E-2,5.9164525E-4,-7.7317557E-3,3.7944734E-3,1.9886112E-2,3.9412975E-4,8.607515E-3,2.6871204E-2,5.3709797E-3,1.5747788E-3,4.9010925E-3,1.3561574E-2,2.2999113E-2,1.1487475E-2,3.748074E-2,1.396962E-4,5.258929E-3,4.424528E-4],"categories":[],"categories_nodes":[],"categories_segments":[],"categories_sizes":[],"default_left":[0,0,0,0,0,0,0,0,0,0,0,0,0,0,0,0,0,0,0,0,0,0,0,0,0,0,0,0,0,0,0,0,0,0,0,0,0,0,0,0,0,0,0,0,0,0,0,0,0,0,0,0,0,0,0,0,0,0,0,0,0,0,0,0,0,0,0,0,0,0,0,0,0,0,0,0,0,0,0,0,0,0,0,0,0,0,0,0,0,0,0,0,0,0,0,0,0,0,0,0,0,0,0,0,0,0,0,0,0,0,0,0,0],"id":12,"left_children":[1,3,5,7,9,11,13,15,17,19,21,23,25,27,29,31,33,35,37,39,41,43,45,47,49,51,53,55,57,59,61,63,65,67,69,71,73,75,77,79,-1,-1,-1,81,83,-1,-1,85,87,89,91,93,95,97,99,101,103,105,107,-1,-1,109,111,-1,-1,-1,-1,-1,-1,-1,-1,-1,-1,-1,-1,-1,-1,-1,-1,-1,-1,-1,-1,-1,-1,-1,-1,-1,-1,-1,-1,-1,-1,-1,-1,-1,-1,-1,-1,-1,-1,-1,-1,-1,-1,-1,-1,-1,-1,-1,-1,-1,-1],"loss_changes":[2.4156442E2,3.5427322E1,1.1487251E1,4.0822998E1,6.169422E0,1.9127388E0,5.458294E0,7.4384885E0,2.518863E1,6.77115E0,5.0397234E0,1.5415688E0,2.188592E0,3.3318977E0,3.5532503E0,1.4613136E0,1.2480614E1,1.5460968E1,5.3666053E0,6.5292716E-2,4.824938E0,2.2722876E0,2.0018578E0,1.7617712E0,1.2998161E0,1.1816769E0,2.2867374E-1,2.9311304E0,2.2169333E0,3.6136627E-1,3.4004178E0,5.785602E0,1.2748711E0,6.410101E0,2.4645164E1,3.7410808E0,1.3061493E1,2.0701578E0,3.589407E0,4.1042017E-3,0E0,0E0,0E0,2.433626E0,1.5038567E0,0E0,0E0,1.2311397E0,1.9270793E-1,1.0446835E0,8.636589E-1,1.3871927E0,1.7828465E0,1.4938764E-1,2.2635603E-1,1.3963094E0,1.6970911E0,1.1211281E0,1.4115057E0,0E0,0E0,2.2246528E0,1.8998575E0,0E0,0E0,0E0,0E0,0E0,0E0,0E0,0E0,0E0,0E0,0E0,0E0,0E0,0E0,0E0,0E0,0E0,0E0,0E0,0E0,0E0,0E0,0E0,0E0,0E0,0E0,0E0,0E0,0E0,0E0,0E0,0E0,0E0,0E0,0E0,0E0,0E0,0E0,0E0,0E0,0E0,0E0,0E0,0E0,0E0,0E0,0E0,0E0,0E0,0E0],"parents":[2147483647,0,0,1,1,2,2,3,3,4,4,5,5,6,6,7,7,8,8,9,9,10,10,11,11,12,12,13,13,14,14,15,15,16,16,17,17,18,18,19,19,20,20,21,21,22,22,23,23,24,24,25,25,26,26,27,27,28,28,29,29,30,30,31,31,32,32,33,33,34,34,35,35,36,36,37,37,38,38,39,39,43,43,44,44,47,47,48,48,49,49,50,50,51,51,52,52,53,53,54,54,55,55,56,56,57,57,58,58,61,61,62,62],"right_children":[2,4,6,8,10,12,14,16,18,20,22,24,26,28,30,32,34,36,38,40,42,44,46,48,50,52,54,56,58,60,62,64,66,68,70,72,74,76,78,80,-1,-1,-1,82,84,-1,-1,86,88,90,92,94,96,98,100,102,104,106,108,-1,-1,110,112,-1,-1,-1,-1,-1,-1,-1,-1,-1,-1,-1,-1,-1,-1,-1,-1,-1,-1,-1,-1,-1,-1,-1,-1,-1,-1,-1,-1,-1,-1,-1,-1,-1,-1,-1,-1,-1,-1,-1,-1,-1,-1,-1,-1,-1,-1,-1,-1,-1,-1],"split_conditions":[4.2E0,9.95E1,2.35263E1,1.9471E1,3.115E0,4.633333E0,3.473E1,5.1E0,7.734487E0,4.791161E-1,5.1744986E0,1E1,2.17546E1,1.12E1,4.21875E-4,4.859294E-2,9.38056E-1,9.99E0,1.2E1,1.21851E1,2.8E0,8.353976E-1,2.28369E1,4.54E0,4E0,2.0206E1,2.311E1,9E0,4.4451613E0,2.64085E1,4.415E0,2.8667476E-2,2.4E1,1.4E1,3.8219512E0,9E0,2.0206E1,2.78695E1,4.82E1,6.7292E0,1.3915277E-2,-3.081151E-3,-9.656524E-2,1.2915E2,5E0,-9.628634E-2,-4.6361326E-3,4.364706E0,9.99E0,1.7515046E-3,1.2997E1,1.4243E1,2.2E1,4.85E0,3E0,8.226544E-1,3E0,2.2466187E0,1.523E1,1.3588644E-2,7.087028E-2,4.4E0,3.654E1,1.3512029E-2,-6.990104E-2,1.3152557E-2,1.8588206E-3,-9.223964E-2,-2.2404322E-3,-6.1087072E-2,9.633636E-3,7.4289003E-3,6.251656E-2,-9.52509E-2,-2.599307E-2,-3.4481182E-3,1.1615153E-2,-1.672538E-2,-9.168091E-2,-6.452918E-4,2.7886273E-3,1.5397372E-3,-7.110183E-3,-5.738831E-3,7.091615E-3,-8.222803E-3,2.9308904E-2,-3.8202605E-4,1.645856E-2,1.45954685E-2,4.3753E-3,9.519121E-3,6.64035E-3,1.5632253E-2,-1.4765195E-3,3.972187E-2,5.9164525E-4,-7.7317557E-3,3.7944734E-3,1.9886112E-2,3.9412975E-4,8.607515E-3,2.6871204E-2,5.3709797E-3,1.5747788E-3,4.9010925E-3,1.3561574E-2,2.2999113E-2,1.1487475E-2,3.748074E-2,1.396962E-4,5.258929E-3,4.424528E-4],"split_indices":[6,2,0,0,6,6,2,7,8,8,8,2,0,2,8,8,8,2,9,0,6,8,0,6,9,0,0,2,6,0,6,8,5,5,6,2,0,0,2,0,0,0,0,2,7,0,0,6,2,8,0,0,5,6,9,8,10,8,2,0,0,7,0,0,0,0,0,0,0,0,0,0,0,0,0,0,0,0,0,0,0,0,0,0,0,0,0,0,0,0,0,0,0,0,0,0,0,0,0,0,0,0,0,0,0,0,0,0,0,0,0,0,0],"split_type":[0,0,0,0,0,0,0,0,0,0,0,0,0,0,0,0,0,0,0,0,0,0,0,0,0,0,0,0,0,0,0,0,0,0,0,0,0,0,0,0,0,0,0,0,0,0,0,0,0,0,0,0,0,0,0,0,0,0,0,0,0,0,0,0,0,0,0,0,0,0,0,0,0,0,0,0,0,0,0,0,0,0,0,0,0,0,0,0,0,0,0,0,0,0,0,0,0,0,0,0,0,0,0,0,0,0,0,0,0,0,0,0,0],"sum_hessian":[7.907E3,2.022E3,5.885E3,1.53E3,4.92E2,1.726E3,4.159E3,3.54E2,1.176E3,1E1,4.82E2,1.562E3,1.64E2,1.684E3,2.475E3,1.1E2,2.44E2,1.073E3,1.03E2,4E0,6E0,4.8E2,2E0,3.5E1,1.527E3,1.43E2,2.1E1,1.289E3,3.95E2,2E0,2.473E3,8E0,1.02E2,1.95E2,4.9E1,1.8E1,1.055E3,9E1,1.3E1,2E0,2E0,2E0,4E0,3.63E2,1.17E2,1E0,1E0,2.3E1,1.2E1,4.14E2,1.113E3,1.29E2,1.4E1,1.4E1,7E0,4.4E1,1.245E3,2.42E2,1.53E2,1E0,1E0,1.417E3,1.056E3,6E0,2E0,5.8E1,4.4E1,1E0,1.94E2,2.8E1,2.1E1,1.5E1,3E0,6E0,1.049E3,4.2E1,4.8E1,1.2E1,1E0,1E0,1E0,1.22E2,2.41E2,3E1,8.7E1,2E0,2.1E1,1.1E1,1E0,2.6E1,3.88E2,6.61E2,4.52E2,1.16E2,1.3E1,1E1,4E0,1.1E1,3E0,1E0,6E0,2.5E1,1.9E1,7.65E2,4.8E2,1.96E2,4.6E1,3.6E1,1.17E2,3E0,1.414E3,7.78E2,2.78E2],"tree_param":{"num_deleted":"0","num_feature":"11","num_nodes":"113","size_leaf_vector":"1"}},{"base_weights":[5.5963346E-3,-2.957238E-1,4.710016E-2,-4.8363897E-1,-1.7872956E-1,2.834317E-3,1.1458244E-1,-2.646133E-1,-6.840782E-1,2.919368E-1,-2.465312E-1,4.396737E-2,-1.1216986E-1,1.5898979E-1,6.2150873E-2,-7.287727E-1,-3.8064476E-2,-8.9822924E-1,-3.1765875E-1,8.45698E-2,5.3950965E-1,-4.387036E-1,-1.2129406E-1,1.0028796E-1,1.0615716E-2,-9.583712E-2,-7.619299E-1,4.6161368E-1,1.5203601E-1,8.7954216E-2,-8.800912E-2,-2.7434155E-1,-9.9886006E-1,-3.9899883E-1,1.9978364E-1,-4.0084076E-1,-1.1151273E0,-7.497846E-2,-7.708986E-1,5.57696E-1,-1.9893347E-1,9.7554785E-1,4.1123194E-1,-1.6427879E0,-3.8757986E-1,-3.997027E-1,-1.6666077E-2,9.125933E-2,3.6965626E-1,2.6120653E-2,-1.062619E-1,8.796442E-2,-1.4371091E-1,-5.101768E-1,-1.3029481E-1,6.5834975E-1,2.820003E-1,1.2478816E-1,2.4308614E-1,1.5430152E-1,6.408871E-2,1.2833795E-1,-2.1377131E-1,-5.018738E-2,5.375389E-3,-3.7642997E-2,-1.3893229E-1,-2.6171922E-4,-3.9627258E-2,4.7039483E-3,3.6463793E-2,-9.0516165E-2,-1.5690949E-2,-3.708003E-2,-7.587633E-2,2.7424777E-2,-8.011557E-3,-2.6389265E-2,-7.263966E-2,-9.302898E-3,3.386182E-2,1.0279996E-2,-2.9462865E-2,6.259459E-2,9.4896E-3,-8.761704E-4,2.3169177E-2,3.3301514E-4,-1.096857E-1,-1.694509E-2,-8.302137E-2,-1.8015156E-2,-9.3716696E-2,2.5397064E-3,-1.7417526E-2,3.1482286E-3,8.448849E-3,2.4919845E-2,-4.31238E-3,2.953026E-3,-8.5408083E-4,-3.0260193E-3,-4.005654E-2,1.7369044E-3,1.824796E-2,-4.746927E-2,-5.66866E-3,-1.837116E-2,-9.840658E-2,1.7052427E-2,4.4667862E-2,2.1476619E-2,-5.4620667E-3,1.4373496E-3,7.1952157E-3,4.1362043E-2,1.1676382E-2,1.8122878E-2,6.9872574E-3,2.874782E-3,1.814123E-2,5.0919256E-3,2.2358151E-2,-2.249524E-2,-2.4084251E-5],"categories":[],"categories_nodes":[],"categories_segments":[],"categories_sizes":[],"default_left":[0,0,0,0,0,0,0,0,0,0,0,0,0,0,0,0,0,0,0,0,0,0,0,0,0,0,0,0,0,0,0,0,0,0,0,0,0,0,0,0,0,0,0,0,0,0,0,0,0,0,0,0,0,0,0,0,0,0,0,0,0,0,0,0,0,0,0,0,0,0,0,0,0,0,0,0,0,0,0,0,0,0,0,0,0,0,0,0,0,0,0,0,0,0,0,0,0,0,0,0,0,0,0,0,0,0,0,0,0,0,0,0,0,0,0,0,0,0,0,0,0,0,0,0,0],"id":13,"left_children":[1,3,5,7,9,11,13,15,17,19,21,23,25,27,29,31,33,35,37,39,41,43,45,47,49,51,53,55,57,59,61,63,65,67,69,71,73,75,77,79,81,83,85,87,89,91,93,95,97,99,101,103,105,107,-1,109,111,113,115,117,119,121,123,-1,-1,-1,-1,-1,-1,-1,-1,-1,-1,-1,-1,-1,-1,-1,-1,-1,-1,-1,-1,-1,-1,-1,-1,-1,-1,-1,-1,-1,-1,-1,-1,-1,-1,-1,-1,-1,-1,-1,-1,-1,-1,-1,-1,-1,-1,-1,-1,-1,-1,-1,-1,-1,-1,-1,-1,-1,-1,-1,-1,-1,-1],"loss_changes":[9.8960915E1,2.0975182E1,2.0775375E1,1.59307785E1,1.8963846E1,1.9877647E1,6.4047165E0,1.8584654E1,1.4702263E1,3.804757E0,1.2413553E1,5.8125362E0,1.1674865E1,3.0674515E0,4.909147E0,6.8446674E0,1.038142E1,1.2498924E1,7.8616505E0,5.7445226E0,1.5005789E0,1.1920979E1,9.169079E0,2.7655258E0,3.5274658E0,9.524659E0,1.1204588E1,9.8044777E-1,3.589325E0,1.7001953E0,5.088176E0,6.513944E0,1.3669857E1,7.43415E0,4.0171857E0,4.0928016E0,1.1350075E1,2.6392221E0,3.377677E0,1.5485439E0,4.384425E0,1.2823734E0,6.342077E-1,7.284403E0,1.1643354E1,4.3212605E0,5.1640596E0,2.441248E0,2.2146397E0,2.445855E0,7.19835E0,3.2898474E0,2.086387E1,4.480071E0,0E0,8.138442E-1,1.143616E0,2.0612946E0,1.6773338E0,8.128977E-1,1.5469315E0,5.3742075E-1,5.942832E0,0E0,0E0,0E0,0E0,0E0,0E0,0E0,0E0,0E0,0E0,0E0,0E0,0E0,0E0,0E0,0E0,0E0,0E0,0E0,0E0,0E0,0E0,0E0,0E0,0E0,0E0,0E0,0E0,0E0,0E0,0E0,0E0,0E0,0E0,0E0,0E0,0E0,0E0,0E0,0E0,0E0,0E0,0E0,0E0,0E0,0E0,0E0,0E0,0E0,0E0,0E0,0E0,0E0,0E0,0E0,0E0,0E0,0E0,0E0,0E0,0E0,0E0],"parents":[2147483647,0,0,1,1,2,2,3,3,4,4,5,5,6,6,7,7,8,8,9,9,10,10,11,11,12,12,13,13,14,14,15,15,16,16,17,17,18,18,19,19,20,20,21,21,22,22,23,23,24,24,25,25,26,26,27,27,28,28,29,29,30,30,31,31,32,32,33,33,34,34,35,35,36,36,37,37,38,38,39,39,40,40,41,41,42,42,43,43,44,44,45,45,46,46,47,47,48,48,49,49,50,50,51,51,52,52,53,53,55,55,56,56,57,57,58,58,59,59,60,60,61,61,62,62],"right_children":[2,4,6,8,10,12,14,16,18,20,22,24,26,28,30,32,34,36,38,40,42,44,46,48,50,52,54,56,58,60,62,64,66,68,70,72,74,76,78,80,82,84,86,88,90,92,94,96,98,100,102,104,106,108,-1,110,112,114,116,118,120,122,124,-1,-1,-1,-1,-1,-1,-1,-1,-1,-1,-1,-1,-1,-1,-1,-1,-1,-1,-1,-1,-1,-1,-1,-1,-1,-1,-1,-1,-1,-1,-1,-1,-1,-1,-1,-1,-1,-1,-1,-1,-1,-1,-1,-1,-1,-1,-1,-1,-1,-1,-1,-1,-1,-1,-1,-1,-1,-1,-1,-1,-1,-1],"split_conditions":[4E0,1.032E1,9.08861E1,8.9E1,3E1,3.9E1,3E1,7.6782E1,2.4E1,9.02706E1,6.254E1,3.473E1,9.02706E1,9E0,3.3E1,7.3088E1,2.7204E1,8.1828E1,3.5365E1,1.523E1,2.6E0,5E0,3.4E0,5.26E0,4E0,3.0185E1,3.54E1,2.6E1,1.2E1,1E1,1.0713E1,3.2E0,3.6274E1,1.61249E1,3.5299E1,6.84533E1,1E1,6.4E0,8.1732E1,2.573E1,8.1476E1,9.24291E1,9.1683E1,1E0,5.7805E1,2.09E2,3.6901E1,1.12E1,5E0,3.6547E1,2.5E1,1.2E1,3.069E1,5.9E0,-1.3029481E-1,1.8E1,1.51779E1,9.26686E1,6.7292E0,3.473E1,3.2312E1,1.26516E2,5.6E0,-5.018738E-2,5.375389E-3,-3.7642997E-2,-1.3893229E-1,-2.6171922E-4,-3.9627258E-2,4.7039483E-3,3.6463793E-2,-9.0516165E-2,-1.5690949E-2,-3.708003E-2,-7.587633E-2,2.7424777E-2,-8.011557E-3,-2.6389265E-2,-7.263966E-2,-9.302898E-3,3.386182E-2,1.0279996E-2,-2.9462865E-2,6.259459E-2,9.4896E-3,-8.761704E-4,2.3169177E-2,3.3301514E-4,-1.096857E-1,-1.694509E-2,-8.302137E-2,-1.8015156E-2,-9.3716696E-2,2.5397064E-3,-1.7417526E-2,3.1482286E-3,8.448849E-3,2.4919845E-2,-4.31238E-3,2.953026E-3,-8.5408083E-4,-3.0260193E-3,-4.005654E-2,1.7369044E-3,1.824796E-2,-4.746927E-2,-5.66866E-3,-1.837116E-2,-9.840658E-2,1.7052427E-2,4.4667862E-2,2.1476619E-2,-5.4620667E-3,1.4373496E-3,7.1952157E-3,4.1362043E-2,1.1676382E-2,1.8122878E-2,6.9872574E-3,2.874782E-3,1.814123E-2,5.0919256E-3,2.2358151E-2,-2.249524E-2,-2.4084251E-5],"split_indices":[3,2,1,5,2,5,2,1,4,1,2,2,1,2,5,1,0,1,0,2,3,5,3,3,10,0,2,5,2,5,0,3,0,0,0,1,4,7,1,0,1,1,1,5,2,5,0,2,10,0,5,2,0,3,0,5,0,1,0,2,0,2,7,0,0,0,0,0,0,0,0,0,0,0,0,0,0,0,0,0,0,0,0,0,0,0,0,0,0,0,0,0,0,0,0,0,0,0,0,0,0,0,0,0,0,0,0,0,0,0,0,0,0,0,0,0,0,0,0,0,0,0,0,0,0],"split_type":[0,0,0,0,0,0,0,0,0,0,0,0,0,0,0,0,0,0,0,0,0,0,0,0,0,0,0,0,0,0,0,0,0,0,0,0,0,0,0,0,0,0,0,0,0,0,0,0,0,0,0,0,0,0,0,0,0,0,0,0,0,0,0,0,0,0,0,0,0,0,0,0,0,0,0,0,0,0,0,0,0,0,0,0,0,0,0,0,0,0,0,0,0,0,0,0,0,0,0,0,0,0,0,0,0,0,0,0,0,0,0,0,0,0,0,0,0,0,0,0,0,0,0,0,0],"sum_hessian":[7.911E3,9.57E2,6.954E3,3.66E2,5.91E2,4.2E3,2.754E3,1.76E2,1.9E2,7.4E1,5.17E2,3.094E3,1.106E3,1.49E3,1.264E3,5.7E1,1.19E2,1.19E2,7.1E1,4.1E1,3.3E1,2.03E2,3.14E2,1.15E3,1.944E3,1.08E3,2.6E1,3.2E1,1.458E3,1.079E3,1.85E2,2.2E1,3.5E1,4.7E1,7.2E1,3.7E1,8.2E1,4.7E1,2.4E1,1.5E1,2.6E1,6E0,2.7E1,7E0,1.96E2,8.5E1,2.29E2,1.114E3,3.6E1,1.717E3,2.27E2,2.23E2,8.57E2,2.4E1,2E0,1.4E1,1.8E1,1.124E3,3.34E2,2.84E2,7.95E2,6.8E1,1.17E2,7E0,1.5E1,3.2E1,3E0,2.4E1,2.3E1,6.1E1,1.1E1,1E0,3.6E1,4.4E1,3.8E1,5E0,4.2E1,1.9E1,5E0,2E0,1.3E1,1.3E1,1.3E1,4E0,2E0,3E0,2.4E1,2E0,5E0,1.9E2,6E0,8.4E1,1E0,1.91E2,3.8E1,8.18E2,2.96E2,2.8E1,8E0,9.74E2,7.43E2,2.14E2,1.3E1,1.88E2,3.5E1,3E1,8.27E2,2.3E1,1E0,7E0,7E0,1.3E1,5E0,1.87E2,9.37E2,4E0,3.3E2,1.7E1,2.67E2,7.79E2,1.6E1,6.4E1,4E0,5.5E1,6.2E1],"tree_param":{"num_deleted":"0","num_feature":"11","num_nodes":"125","size_leaf_vector":"1"}},{"base_weights":[-1.8687827E-3,-2.7880615E-1,8.579021E-2,-3.4364155E-1,-7.356894E-2,4.9414795E-2,1.21059805E-1,-4.051497E-2,-3.7285006E-1,-6.4131045E-1,-6.2126905E-2,9.400974E-2,1.8448975E-2,3.594793E-1,1.171552E-1,-1.04122E0,5.232764E-2,-4.0766186E-1,-8.626256E-2,1.0912466E-1,-1.0347155E0,9.597818E-2,-8.9818664E-2,1.6540017E-2,1.104566E-1,2.913467E-2,-1.1575732E-1,4.273787E-1,8.606512E-2,1.21610135E-1,-6.453868E-2,-1.7181312E0,1.146996E-1,2.5194772E-2,3.1643263E-1,-5.4713607E-1,-3.00422E-1,-1.5224952E-1,3.877703E-1,1.3988542E-2,-2.0507178E-3,-1.5925338E0,5.394745E-2,2.2249924E-1,-3.7086986E-2,-1.5073666E-1,1.1352944E-2,3.6533587E-2,-1.0472541E0,8.003474E-2,1.6834334E-1,1.0633721E-1,1.912359E-2,-9.231893E-1,-6.23003E-2,-1.4482498E-2,4.9278426E-1,-7.987372E-2,2.7759662E-2,1.20693654E-1,4.909884E-2,4.1693544E-1,-8.397366E-2,-1.02732174E-1,7.523549E-3,-7.035807E-3,2.8409064E-2,3.590865E-3,-5.9529734E-3,2.3628255E-2,-3.7470253E-3,-2.526935E-2,-8.03006E-2,1.7389333E-2,-2.0661E-2,1.5206097E-3,-1.3881437E-2,2.9087594E-2,-8.268015E-6,-1.7960429E-3,-1.04971565E-1,4.224837E-3,-1.7877818E-4,1.8593846E-2,5.8663557E-3,8.516812E-3,-6.530533E-3,-2.9845806E-3,-1.5560537E-2,-4.0418995E-3,1.06762685E-2,6.3264915E-3,-4.4632456E-3,-6.785953E-3,-9.454648E-2,5.236787E-3,1.3917419E-3,7.718352E-3,2.0037906E-2,2.716499E-2,4.8130057E-3,-6.5253355E-2,1.0931666E-3,-7.789739E-2,5.052808E-3,-1.4874071E-2,1.3619065E-3,3.912234E-3,-2.4338437E-3,1.6030768E-2,3.4474526E-2,7.4992975E-4,-1.0110688E-2,1.8235417E-2,5.8861203E-3,2.744831E-2,3.8218498E-3,-1.0555658E-2,-1.12911E-3],"categories":[],"categories_nodes":[],"categories_segments":[],"categories_sizes":[],"default_left":[0,0,0,0,0,0,0,0,0,0,0,0,0,0,0,0,0,0,0,0,0,0,0,0,0,0,0,0,0,0,0,0,0,0,0,0,0,0,0,0,0,0,0,0,0,0,0,0,0,0,0,0,0,0,0,0,0,0,0,0,0,0,0,0,0,0,0,0,0,0,0,0,0,0,0,0,0,0,0,0,0,0,0,0,0,0,0,0,0,0,0,0,0,0,0,0,0,0,0,0,0,0,0,0,0,0,0,0,0,0,0,0,0,0,0,0,0,0,0],"id":14,"left_children":[1,3,5,7,9,11,13,15,17,19,21,23,25,27,29,31,33,35,37,39,41,43,45,47,49,51,53,55,57,59,61,63,65,67,69,71,73,75,77,-1,-1,79,81,83,85,87,89,91,93,95,97,99,101,103,105,107,109,111,-1,113,-1,115,117,-1,-1,-1,-1,-1,-1,-1,-1,-1,-1,-1,-1,-1,-1,-1,-1,-1,-1,-1,-1,-1,-1,-1,-1,-1,-1,-1,-1,-1,-1,-1,-1,-1,-1,-1,-1,-1,-1,-1,-1,-1,-1,-1,-1,-1,-1,-1,-1,-1,-1,-1,-1,-1,-1,-1,-1],"loss_changes":[1.9335838E2,2.5456924E1,7.7558403E0,1.2867279E1,2.9548688E0,4.1134057E0,2.816784E0,1.2039625E1,1.3203812E1,2.769937E0,1.9919487E0,1.5538893E0,2.5273669E0,8.728857E-1,2.4547615E0,8.804072E0,8.4477264E-1,1.7529999E1,4.594635E0,1.1395723E-1,3.7295704E0,1.1530689E0,2.380695E0,4.6111035E0,1.7598753E0,1.258535E0,5.5536623E0,1.1342444E0,9.006577E-1,2.2083817E0,7.181047E-1,4.7108154E0,6.590841E-1,7.416297E-1,7.075809E-1,2.1866547E1,4.920496E1,2.9398973E0,1.354639E0,0E0,0E0,3.080759E0,5.573985E-3,5.0623167E-1,6.818131E-1,3.502523E0,2.7384765E0,2.4114296E0,2.8195243E0,8.506603E-1,1.062048E0,7.711222E-1,5.2709084E0,5.3586283E0,2.598206E0,2.2833195E-2,9.304066E-1,1.0749307E-1,0E0,2.0951805E0,0E0,9.290749E-2,5.494075E-1,0E0,0E0,0E0,0E0,0E0,0E0,0E0,0E0,0E0,0E0,0E0,0E0,0E0,0E0,0E0,0E0,0E0,0E0,0E0,0E0,0E0,0E0,0E0,0E0,0E0,0E0,0E0,0E0,0E0,0E0,0E0,0E0,0E0,0E0,0E0,0E0,0E0,0E0,0E0,0E0,0E0,0E0,0E0,0E0,0E0,0E0,0E0,0E0,0E0,0E0,0E0,0E0,0E0,0E0,0E0,0E0],"parents":[2147483647,0,0,1,1,2,2,3,3,4,4,5,5,6,6,7,7,8,8,9,9,10,10,11,11,12,12,13,13,14,14,15,15,16,16,17,17,18,18,19,19,20,20,21,21,22,22,23,23,24,24,25,25,26,26,27,27,28,28,29,29,30,30,31,31,32,32,33,33,34,34,35,35,36,36,37,37,38,38,41,41,42,42,43,43,44,44,45,45,46,46,47,47,48,48,49,49,50,50,51,51,52,52,53,53,54,54,55,55,56,56,57,57,59,59,61,61,62,62],"right_children":[2,4,6,8,10,12,14,16,18,20,22,24,26,28,30,32,34,36,38,40,42,44,46,48,50,52,54,56,58,60,62,64,66,68,70,72,74,76,78,-1,-1,80,82,84,86,88,90,92,94,96,98,100,102,104,106,108,110,112,-1,114,-1,116,118,-1,-1,-1,-1,-1,-1,-1,-1,-1,-1,-1,-1,-1,-1,-1,-1,-1,-1,-1,-1,-1,-1,-1,-1,-1,-1,-1,-1,-1,-1,-1,-1,-1,-1,-1,-1,-1,-1,-1,-1,-1,-1,-1,-1,-1,-1,-1,-1,-1,-1,-1,-1,-1,-1,-1,-1],"split_conditions":[4.109091E0,9.95E1,4.42E0,6E0,3.115E0,3.5E1,9E0,3.5E0,3.6E1,1.25E2,1.106E2,4.2818184E0,4.4E1,6.6E1,1.56E2,4E0,3E0,1.032E1,1.032E1,1.0853E2,1.779E2,3.76375E0,4.3E0,5.2E0,4.5E0,4.8E0,3.54E1,5E0,1.88E2,7.7E0,3.5E0,3E0,7E0,4.5E0,1.032E1,1.2E1,3E1,6E1,4.1E0,1.3988542E-2,-2.0507178E-3,2.4E1,1.8538E2,4E0,3E1,4E0,1.969E2,7E0,3E0,3.1E1,6.7E0,4.4E0,5E0,5.4E0,5.2E1,2E0,4.6E0,3E0,2.7759662E-2,4.420833E0,4.909884E-2,3.54E1,4E0,-1.02732174E-1,7.523549E-3,-7.035807E-3,2.8409064E-2,3.590865E-3,-5.9529734E-3,2.3628255E-2,-3.7470253E-3,-2.526935E-2,-8.03006E-2,1.7389333E-2,-2.0661E-2,1.5206097E-3,-1.3881437E-2,2.9087594E-2,-8.268015E-6,-1.7960429E-3,-1.04971565E-1,4.224837E-3,-1.7877818E-4,1.8593846E-2,5.8663557E-3,8.516812E-3,-6.530533E-3,-2.9845806E-3,-1.5560537E-2,-4.0418995E-3,1.06762685E-2,6.3264915E-3,-4.4632456E-3,-6.785953E-3,-9.454648E-2,5.236787E-3,1.3917419E-3,7.718352E-3,2.0037906E-2,2.716499E-2,4.8130057E-3,-6.5253355E-2,1.0931666E-3,-7.789739E-2,5.052808E-3,-1.4874071E-2,1.3619065E-3,3.912234E-3,-2.4338437E-3,1.6030768E-2,3.4474526E-2,7.4992975E-4,-1.0110688E-2,1.8235417E-2,5.8861203E-3,2.744831E-2,3.8218498E-3,-1.0555658E-2,-1.12911E-3],"split_indices":[6,2,6,5,6,2,2,3,4,2,2,6,5,5,5,9,5,2,2,2,2,6,3,3,3,7,2,7,5,3,3,5,9,3,2,9,2,4,3,0,0,5,2,3,5,3,2,9,4,5,7,7,5,7,5,5,3,10,0,6,0,2,4,0,0,0,0,0,0,0,0,0,0,0,0,0,0,0,0,0,0,0,0,0,0,0,0,0,0,0,0,0,0,0,0,0,0,0,0,0,0,0,0,0,0,0,0,0,0,0,0,0,0,0,0,0,0,0,0],"split_type":[0,0,0,0,0,0,0,0,0,0,0,0,0,0,0,0,0,0,0,0,0,0,0,0,0,0,0,0,0,0,0,0,0,0,0,0,0,0,0,0,0,0,0,0,0,0,0,0,0,0,0,0,0,0,0,0,0,0,0,0,0,0,0,0,0,0,0,0,0,0,0,0,0,0,0,0,0,0,0,0,0,0,0,0,0,0,0,0,0,0,0,0,0,0,0,0,0,0,0,0,0,0,0,0,0,0,0,0,0,0,0,0,0,0,0,0,0,0,0],"sum_hessian":[7.963E3,1.914E3,6.049E3,1.454E3,4.6E2,2.979E3,3.07E3,1.28E2,1.326E3,8E0,4.52E2,1.22E3,1.759E3,4.8E1,3.022E3,1E1,1.18E2,1.182E3,1.44E2,3E0,5E0,6.7E1,3.85E2,2.14E2,1.006E3,1.63E3,1.29E2,3.8E1,1E1,2.95E3,7.2E1,6E0,4E0,1.08E2,1E1,5.12E2,6.7E2,1.27E2,1.7E1,1E0,2E0,3E0,2E0,3.4E1,3.3E1,2.4E2,1.45E2,2.11E2,3E0,6.61E2,3.45E2,1.86E2,1.444E3,7E0,1.22E2,5E0,3.3E1,8E0,2E0,2.948E3,2E0,2E0,7E1,5E0,1E0,3E0,1E0,8.2E1,2.6E1,7E0,3E0,4.94E2,1.8E1,9.9E1,5.71E2,5.2E1,7.5E1,1.1E1,6E0,1E0,2E0,1E0,1E0,1.3E1,2.1E1,1E1,2.3E1,1.54E2,8.6E1,1E2,4.5E1,1.23E2,8.8E1,2E0,1E0,4.48E2,2.13E2,3.27E2,1.8E1,3E0,1.83E2,2E0,1.442E3,4E0,3E0,3.3E1,8.9E1,1E0,4E0,1.9E1,1.4E1,5E0,3E0,3.4E1,2.914E3,1E0,1E0,2.2E1,4.8E1],"tree_param":{"num_deleted":"0","num_feature":"11","num_nodes":"119","size_leaf_vector":"1"}},{"base_weights":[-7.109297E-3,-2.664011E-1,8.316323E-2,-2.0441121E-1,-5.1040405E-1,2.7093282E-2,1.1587222E-1,-2.5648782E-1,-7.805699E-2,-8.0413693E-1,-3.426896E-1,1.0534297E0,2.5174787E-2,2.55058E-1,1.0929411E-1,-5.275538E-1,-1.9613865E-1,-1.2792294E0,-7.0289955E-2,-1.5030525E0,-6.299825E-1,-2.0638633E0,-3.1499848E-1,6.0636874E-2,1.4387667E-2,2.1902869E-2,3.412579E-1,2.0068482E-1,5.843919E-1,7.458688E-2,1.2999047E-1,-4.0317506E-1,-1.1786896E0,4.5107943E-1,-2.1065159E-1,-9.594843E-2,6.222725E-6,1.8328656E-2,-1.4777233E-1,-2.3285995E0,-4.5220926E-1,-1.1920054E0,-4.712056E-1,-1.020574E-2,-1.3078706E-1,-7.7174133E-1,-2.3370714E-1,1.1490391E-2,1.08851455E-1,2.0532425E-1,5.668648E-2,2.2581986E-1,-9.4618954E-2,6.457832E-1,2.342267E-1,-8.3102006E-1,7.865911E-2,1.2018879E-1,2.3065819E-1,-2.546767E-2,1.313818E-2,-1.340058E-1,-2.955143E-2,1.4592258E-3,4.1598357E-2,-6.469277E-3,-1.6270217E-2,1.8080911E-3,-3.1484615E-2,-1.2536809E-2,3.3069209E-3,-1.418767E-1,-4.6206387E-3,-5.251297E-2,6.380537E-3,-8.828654E-2,-2.412273E-2,-8.862416E-3,-3.7477367E-2,-9.905071E-3,-8.909742E-2,-3.260119E-3,-2.3646729E-2,9.522831E-4,-1.0491679E-2,2.3079162E-2,4.779517E-3,2.7688345E-2,4.180157E-3,3.195737E-2,1.0402444E-2,4.320824E-3,-5.9466385E-3,3.619994E-2,1.4098982E-2,4.992843E-4,1.4389527E-2,-1.5371032E-2,-8.622543E-2,4.91466E-3,1.554977E-3,6.8090344E-3,3.1215807E-3,6.6129505E-3,1.5274577E-2],"categories":[],"categories_nodes":[],"categories_segments":[],"categories_sizes":[],"default_left":[0,0,0,0,0,0,0,0,0,0,0,0,0,0,0,0,0,0,0,0,0,0,0,0,0,0,0,0,0,0,0,0,0,0,0,0,0,0,0,0,0,0,0,0,0,0,0,0,0,0,0,0,0,0,0,0,0,0,0,0,0,0,0,0,0,0,0,0,0,0,0,0,0,0,0,0,0,0,0,0,0,0,0,0,0,0,0,0,0,0,0,0,0,0,0,0,0,0,0,0,0,0,0,0,0],"id":15,"left_children":[1,3,5,7,9,11,13,15,17,19,21,23,25,27,29,31,33,35,37,39,41,43,45,-1,-1,47,49,51,53,55,57,59,61,63,65,-1,-1,67,69,71,73,75,77,-1,-1,79,81,83,85,87,-1,89,91,93,95,97,99,101,103,-1,-1,-1,-1,-1,-1,-1,-1,-1,-1,-1,-1,-1,-1,-1,-1,-1,-1,-1,-1,-1,-1,-1,-1,-1,-1,-1,-1,-1,-1,-1,-1,-1,-1,-1,-1,-1,-1,-1,-1,-1,-1,-1,-1,-1,-1],"loss_changes":[1.846326E2,3.0706757E1,1.0727543E1,1.0679222E1,2.002089E1,4.22066E0,3.3551903E0,1.872528E1,4.3509474E0,1.718927E1,1.1932451E1,1.3894367E-1,2.2201886E0,2.8552732E0,2.5259476E0,1.645116E1,8.952656E0,2.455597E0,3.2573726E0,2.410508E1,1.02359085E1,3.5715065E0,9.510372E0,0E0,0E0,1.9298613E0,2.1371367E0,1.0902023E0,